{"layerCount":3,"layerSizes":[784,30,10],"biases":[[-1.0590206242097395,2.7594234889910596,-1.9092046445392439,-2.4101572558579965,2.833418474017492,-1.3147609984602173,-4.239447803007441,-2.5108786530866944,2.1010647061433487,4.115013862692176,3.2445872889949015,1.5000319934987603,1.2091630847664125,0.08808867183645278,-2.8105142447296463,2.0088606685251955,-1.0918768680573665,-4.307116555562239,-0.03382896894476117,-2.8905106479283007,-0.8990945461105772,-1.7572285443803595,-1.1361053730274693,0.7594497507491479,-0.7167211443432234,-1.5464189388663878,-1.0640498017543116,3.8337215571602266,-2.2271842249545215,2.7115347618085472],[-4.069445217921122,-0.7547818336327503,-2.9218443552377678,-11.3720703882171,-3.571094865927804,1.6305493151147976,-3.628543532272722,-2.8372503481730584,-6.1023270319475,-8.89144726087912]],"weights":[[[-1.375400569802813,1.2412280497809016,0.41760084440934087,-1.2455871598660577,-0.16831880845976244,-0.3612264737928532,1.6464357162246008,-0.7685256908980369,0.18440493244508982,-1.8044391691709913,0.6597333800749023,-1.9279119332766195,0.7339795934859502,-0.014227097655367728,1.8468979432788772,1.6488953039133785,-0.46295285689332033,1.6270749046798025,0.11183025937848257,-0.36563538095932024,-1.3508230331554403,1.9401062675742784,0.80871839522157,-0.9574789752935988,-0.13252107532492463,0.7006743748427207,-0.13855091399063202,-1.6192446878993563,-0.23568099814936705,-0.36365890493317554,1.4078120035906503,1.0030481565185596,-0.9863751624411368,0.9409710176439919,-1.5599139305569787,-1.469078379536317,0.8954681262940115,-1.0116409723546282,1.1999492991647165,0.9819351804787829,1.4040832769887037,0.4730659334844215,-1.9657506095523565,1.459391348265096,0.57910810775086,0.5798760283838816,0.7844711823348866,0.13120951787715182,1.2590480165776063,-1.3315395516443032,-1.7793176867422753,-0.2060102807777594,0.7879408843857449,0.9923322188036403,1.3240699047621556,1.8953893528226828,-1.3357620100617185,0.5398385250023274,1.0540586481267518,-1.3451986720407432,-0.8762500776327364,1.3517123486025089,-1.2712368826325295,1.6716833762814811,-1.742690944008169,1.1928039294390336,1.6952908013554113,1.1597028330507593,1.245803012830056,0.5380851959832544,-0.3560780452710112,-1.3724921427642354,0.9822735152454883,-1.7634034021716218,-0.3177636161889625,-1.8477659007642353,-1.5285912246891618,-1.7280126543028376,-0.8194000211791626,0.7394239603518342,0.0852395719873474,-1.4411816080085138,-1.1845519140850014,1.9104375429625629,-1.9998856513598646,0.6920820885437635,-1.5573761542406093,-0.93179210695558,1.4428140444378503,-1.7883156254994694,-1.456992622648904,0.13176014576945683,-1.1572938557731,0.22660482418924038,0.255651585139383,0.1537300644861547,-0.5008672382138564,-0.8425818586968865,-0.5421320975463426,-0.055574957484016856,-0.786889920725534,1.776168072849754,0.3611785902431659,-0.36121438078461743,-1.3140331218296433,0.8575251400544481,0.312347898368795,-1.6341996398121812,-1.9085809675807885,-0.6393467792446801,-0.09531086480045829,-0.988873774026735,-1.2578348700224016,0.39790199468821635,-0.6252615243494062,-1.3445578581377071,-1.3918180537538594,-1.732369830479651,1.0521589104757054,-1.214076460988663,0.23668480385012716,1.046519799195449,-0.10991266176080283,0.0007699247961226213,0.8970830794023796,-0.9428798272173912,1.9020298500979556,1.3843886933389808,1.395743039027684,1.1403258121559599,1.4821436729888477,3.0856518004764313,0.24353777436325225,1.9125339892384796,-0.07094748625019076,1.8138639177949765,-1.4601713197245647,-0.17815788528393708,1.2101688120062364,-0.14536168096993096,0.43964917931513803,-1.8627205447405837,-1.6928245248908933,0.5162307924157347,-2.1442479422464014,-2.0104442802060554,-0.44122828891592314,-0.8659163660427441,-1.6041353662493183,-0.8248154676508351,-1.7421130303083348,-0.8142508237893713,0.260449000342447,1.9656427369377147,1.6861877385908388,0.09257750528423515,-1.2361814446765838,-0.6100765723690668,2.262593313041781,1.5535141581316647,4.113071745991624,0.8702030501323539,1.5089626462159065,2.3880861599500967,-0.3305258997217199,-0.12039174434097906,-0.9087060729259083,-0.6070320172094167,-1.139452870168359,-0.49975359532256486,-1.610692088273778,0.42106979065943795,0.33329757862375053,-2.0300456272796015,0.08597049917954691,-0.6059217467858531,2.2842429353501883,-0.12840148964855208,1.5428138160671476,0.07215443996152807,0.743668386771355,-0.8114242712281324,0.8187075391898708,-2.22695382944239,-3.2323727733266687,-3.1610497145975773,0.4830251265267685,0.6168094065868021,2.183434547547359,1.2557659453756131,-1.5804580362431455,2.4828252607846055,0.8115039038398101,1.9088793249526401,-0.8476083527355704,-0.9029217360790875,-1.8516738737522873,0.4560434332685885,1.0114853496085874,-1.8474228681271767,-0.8110043020397538,-0.8689319514195849,-0.600963412685327,1.4178150057622427,0.8369223942430423,-0.06869648152987083,0.3227043139831599,0.10378190768485847,0.6339110265748453,1.23544582817046,0.08439072623842837,-2.866316076058671,-3.459672687198294,-1.7698340566258537,-1.547105281129991,0.5638915509242939,-0.46630592951935523,2.588786248537244,-1.5665443149332263,0.6006851940694476,-0.6047516236990766,0.855965460303674,1.9478712881534703,-1.1372187459051406,0.16309365929791342,-1.7492212000738803,-1.6819596721461263,-2.0984335269291567,-2.4365412022880655,-1.1237569385564246,0.333183864644557,-1.0274752842498724,-1.1439233104924522,1.264307801458894,0.24615477121468635,-0.3779460006024993,0.07246789853664201,-1.190522240118895,-0.18228561563885035,-3.8428871779234437,-3.2365545133633393,-2.0931227054783617,0.15157212456577926,-0.8842996499671315,0.781207456686366,0.7634785915358009,0.7658799713422434,0.1023576856798143,1.8036794875075335,2.6717532255530125,0.5639514129960917,-1.7277798058769571,0.7478052016754674,0.7639402041953239,0.616887008086304,0.8820167646315328,-2.2366674399916624,0.9492953308999805,-0.307630425082824,1.729976005907605,-0.19502889166424994,1.2461842405674293,-3.309777800304864,0.6083749422202703,1.210940173731247,-1.759483189857154,-1.0543080081031975,-0.7636316710172896,-1.718059803091319,-0.5254098648742253,1.8504822834715846,0.5843576605828334,0.6654547622152684,-0.6544822748461239,1.0216706854898634,0.670511034815396,2.5748137928525083,-0.3901855063436055,0.6621027260022727,1.200622994005975,0.9955190120695965,0.7050334602985747,0.9049522044042742,-0.6255657655492043,-0.6761059022073211,-2.034799018181846,-0.694089505585329,2.0384945193316657,-1.1308393808409622,0.2775539168256895,1.1978996798063368,-0.3497641370965694,-0.20682230204824367,0.49220582041023647,-2.431287883597955,-0.81180835447344,-3.760601515652831,1.7937714874531159,-0.14054780666617334,-0.4585644150087272,-1.0968722376791067,-0.22969963558283396,-0.305201367361772,2.0757563946042223,1.22913541876429,-0.16058113156810275,-0.5972749348746133,0.03106899921010733,-0.7019318803237509,-1.784236784681567,-1.213853107086774,-0.060935175649209736,0.1343263302764414,0.681810545502361,-1.4124564106903688,0.5218035682808726,-1.6147212428273903,0.5702193215030754,1.8838409066559176,-0.8328252511119807,0.4889877885813362,0.2800637895393565,-1.7943175131901596,-2.974985232462021,0.03206694117210913,-0.4190127831488135,0.9925417804158244,1.319586032019775,1.440624934173896,-1.3964903933479837,-1.7320456550799717,-0.514848613838094,1.1943252779033973,1.5966808001415742,0.35524031231116926,-1.1881708763107204,-0.37497434524612405,0.2642623162586621,-0.2750668354147251,-1.7025967301779383,-2.232338961810833,-1.3236446142092606,-1.0735525136432362,-0.5829132041648426,1.3724100659304455,-1.6653161035983868,1.5636526367958052,0.21045317746473857,2.6552941456477406,0.37249053611966704,0.6450433724992376,0.018556841117264803,-2.4107441414277324,-2.964764790588358,-1.532187066852745,-1.5316747248240716,-0.6217422943084645,1.6709671385406664,-2.120858131763096,1.1340565793187285,-1.44857465794448,-0.4692160793637934,-0.44053500941669477,0.08708188657462365,1.63778506046454,-1.994735601423363,-0.6476707585726852,-0.4078322027023758,-1.6945738156582901,0.7629738699173476,0.29145108474167597,0.687834710557845,1.3231149379519114,-0.24742110280069757,-0.25073233552683794,-0.4084163294495018,0.30171824504012607,0.4829612568473335,0.31128451708193194,0.2984418757818755,-0.4617018997353091,-0.6212567545544915,-0.97859331778976,0.6240184849238903,0.16453767191604537,-1.743444993716634,0.7669814332620326,-0.8177462005256324,0.04736853837302702,-1.4121304265392787,-1.136509044483232,1.5197486891751668,0.5867421436803214,-0.7651490019471427,1.9648021379552545,-0.5419417416248279,0.3348223090980095,-0.41736161553466894,-0.8410213313600573,-0.25373757177404205,-0.10379105637471354,0.2992660172837364,0.8450687473930565,1.0239485224163167,1.1266240991398278,0.9567634297280054,0.7553360379556262,1.187809980522609,-0.5039553565673475,-0.30406410449952426,-1.6849143199579801,0.24566131163341812,-0.4704289108439179,0.6712190264292783,1.892869322086006,0.9361923767754005,-1.8553692921406912,-1.5756830843289715,0.6640335667505569,-0.5329566161161993,-0.38805543776763923,0.9242785140002826,-1.1120815455248194,-0.5840926803001775,0.6040655499181802,1.4118384979495346,0.07308865164547304,-0.2580291222209098,0.8734600667575997,-0.6372279696126252,-0.4658919396752286,-0.36322649423688036,-0.6778070030744833,1.2079363820784241,0.013437975602762506,1.2237293989877296,-1.0252649055242187,-0.44715888157583733,0.4419914631230555,-2.2520590909058003,0.3847350206247737,-1.9953781673103472,-0.17118153263704822,-1.9183279741671841,-0.11397177062739842,0.5967433498542449,0.4552959611047694,1.231098363904852,-0.8061208874115507,-0.2764164742954183,-0.13624407258992308,-0.2333523355590695,-0.06343694537482418,-0.13816721701212678,-0.9365128205921807,1.0543314744537904,-0.9448954342523337,-0.14797461498603043,-1.1562629323854556,1.9339090352156518,-0.15664241332752232,2.724816795755776,-1.0048429456188543,-1.0760018108418685,-2.057375393989702,0.26243183570720496,-2.5943412253071165,-0.2962649212336236,-0.8139345426802292,-1.4727851058449692,-2.185536180338704,0.4534497547704567,0.26673597972888197,1.1756845196068058,-1.7024084710752252,0.5155893711226084,1.9507391256425892,-0.16578139259333619,-1.863573439250643,-0.6333488599069562,-0.8544071728060159,-0.9910454246759051,-1.1090300272278408,-0.3930364382430042,0.6447911894786672,0.2482392325605878,-0.223364037659322,0.37939875780474563,1.4291473522419995,3.0356415236002725,-0.2669598695888659,-0.5139446289348161,0.3971924923726501,-1.0470669779491817,-0.34945889687693554,-0.03461939128985533,-0.27897773384967295,0.6084848692707457,0.5924145207169147,-0.25298001769162143,-0.6055414539548692,1.4932855305000352,1.5604256741084883,1.5819821622997297,-0.47599821909134804,0.47951450286596004,-1.6540001028479276,-1.0999180181768788,-1.3342580188384312,1.914397878822587,-1.2676149026105785,1.6237836690556517,0.9255706360813273,-0.35600572058470226,-0.12842197544630654,0.4358360477325922,0.8318792223528574,0.12134895594563413,2.651788466986289,0.06828831224002727,-1.2499234582665015,0.9836596086141619,-0.030692914700850196,0.37174741682264617,-0.26979061903386375,-0.9557822770786532,0.7957719552144263,0.31890200590416057,-0.7238331412105792,-1.3131578194990168,0.7950109970941158,1.4382274839579052,-1.33625733001736,-0.048206758060506734,-0.5192731417382003,-0.30249577292710744,-1.6691773137623165,-0.42576019102006707,-1.0887405207377512,0.9406968563854058,1.4547619714790403,0.2898233057094654,-1.2380188304083706,1.8751684155295552,-1.3709107733040427,-0.411772479154283,0.41386266200308425,1.699541737533345,1.701894897926038,-1.3053920061422555,-0.5702484305067138,0.3166241949994207,-0.9076812683738401,-1.3911580097191616,-0.4680503970476799,-0.6872575862749293,1.3273869370866214,-0.001687062600285453,1.3542973307648059,0.4546643033213671,1.4718955039529762,-0.1958034029190145,-1.8714409571110837,1.9493825681565264,-1.7047836577248905,-1.5046274235143158,-0.6276045836806528,0.8113342199064602,1.2521628599082224,2.404122550196073,0.9462476545508526,-1.0369221427240283,1.309897465418288,0.02103106524217148,0.6386223846090828,-0.07583457280396948,2.0961112309113967,1.5377323062987283,0.5241653187250734,-0.9445776972794315,-0.6949164843919585,0.12042552245655806,-1.111071454645301,0.6556517405568983,0.12636673198660534,-2.006728358740463,1.7922021992319233,-1.72891904616641,-0.741549705783982,-0.31602375799038607,-1.7713580961117994,0.6949844623095135,-1.1757180122637534,-2.108579414821592,0.24255721450182227,0.39596598094422397,0.8177416964581196,0.6700842356448322,1.0815825611820256,0.7101600533006225,0.8223667246027649,0.5963411159458167,1.6922844206783567,2.265436593316066,0.35685015671313114,1.3786326299602438,2.1123380071055364,1.0212394306367356,-0.716335333802065,-0.6156075773127179,-1.900364301795526,-1.4121484846979284,-0.6288467563068418,1.8470462317807963,0.36417106875822736,-0.9603337613624365,1.2174185538964464,-0.07652945550861544,-1.0334123128119277,0.170583312751517,1.7194053956284165,-0.4344597652341177,1.5153914908939152,1.88092316459826,0.804559228881611,0.1323928582249179,2.23456922585665,2.162316235875439,-0.8563825523474417,0.007803186969888592,-1.0603223922000458,0.40354711292348533,1.3768595964924493,0.418525251929875,1.4548456583739169,1.657374116148321,-1.5415331121723725,1.7221671024214638,-0.9148995256532269,-1.8430632961367275,0.7718181213389796,-1.9457986609898485,0.9684840401922244,-0.612929899959465,0.29515431104835965,0.35177105040203926,-0.29911939467324755,-0.8747810415126697,-1.451240252267573,-1.8071562274702326,-0.2935743279532852,0.7115033036284519,-0.5409912789915785,-0.03185341872047925,0.7373428177603675,1.0323795694665232,0.5236957769263137,0.1106630679982425,0.984230135376702,-1.0490784859860494,-0.3961507399585164,-0.5511014643709641,0.5813717408991965,-0.38202212390942153,0.7694310429073955,0.09473248814491321,0.9533169867524486,-0.3127289029904258,1.0777739095227052,-1.491967262819923,-0.37978218467774033,0.936345574148536,1.4254713198022522,-0.08005661849473444,1.7595596019925628,1.3255296923749729,-1.489315843056757,1.2605465215681977,-1.8212248074261057,-2.5628693591250316,-0.3487384336551675,0.5713716756804189,-0.05544121119777187,1.2048816573932546,2.1543299849186024,0.17717301588578135,2.0264087706173934,-0.04364999962014453,0.07134409713965917,1.9692113341823,-1.2737711011461246,-0.4500134663832404,0.3206918563829806,-1.8632878900294552,-1.454791984639306,-1.7210632863909685,-0.222783023221169,0.3096044902118403,1.6794089681538173,1.716512004116928,1.739071328114437,-0.22077348216051274,-0.5420118497848367,1.8585708957479696,0.3789975573550746,-2.3113362755985203,-1.1185469194083262,-0.64598424101828,-2.3978165101624227,-1.1523901278655393,0.6222091952828899,0.36728224477333726,-0.9627369400909,0.6158648517449714,-0.2570981294835189,0.6116783562119328,1.7261838695425835,0.637636043678087,-0.23790943321977362,0.29718666428301155,1.4707902674794662,-1.4858561730893103,-0.1319691504898008,1.5916237724175655,0.8420623455143427,0.8730858031577714,0.32861602036135285,-0.8776839283307947,0.7513901380375403,0.14804637374413776,-0.8800599598155907,1.1813869387098892,-1.7034642837537013,-1.6041566109636378,-2.027768856547964,-0.5427663011712123,0.2317508626517328,-0.3858668638967144,-1.5781452854553346,-0.38131516324436376,1.261528439987974,-1.0389023325931555,-0.7960496963570982,-1.1830016404792234,0.9376375771430264,-0.6839497301907379,0.6253257714710804,-0.6171211649414503,0.049200562298828854,0.8657336365260014,0.4170270701137798,-1.4779485483738508,0.15382380045703664,-0.7723064876516599,-1.152090577391733,-1.9272081917297132,1.9900802628970933,-0.9459973713283656,-0.4196153412566064,0.35336050540094455,0.30288237491144915,0.6107502965138253,-0.0794953330633009,-1.3564757385288868,1.3530039954532522,-0.5575378062430553,-0.10657333063859535,0.9307656202168614,-0.3285989992701728,1.1439279880964042,1.5954007346920362,-0.19085758522349053,0.33937830211096726,-1.0916624930241505,-0.5959260161817447,0.7259248289032996,0.5064336205219688,1.2051851949052128,0.20491845364494107,-0.8201631897446529,0.517508222966919,1.8860292772478031,1.984455895923511,0.38084441407516145],[0.2300614899136848,0.6170223683280609,0.9628971002827971,0.695288044653477,-0.1399815551339918,0.31074012925332006,0.8201829503828622,0.3728464548653019,-1.8712551028277602,1.7261566901235463,0.6077638876298375,1.1563398886764285,-1.2633973820960198,-1.3300349592780307,0.25645544557184013,-1.152242278358115,0.5794000683284031,-1.9260890044883032,0.8580308394137948,0.17217265319568575,0.5289438296400615,-1.891829885174948,-0.6035223036759305,0.38701952894473024,-1.7019377601673904,0.5881791980018987,-0.2764979135660832,-0.48665825426305354,-1.6477551011165161,0.9903725557069789,-1.47463725420896,0.1316662255030634,1.3219425629964432,-1.537033913313339,0.6762220223958877,-0.6680939991314754,0.6302982280105638,-0.9879201213138847,0.6048537551717923,0.5408770470800489,0.17969919241680585,1.5018089003013766,0.49723674967915066,-0.30662005433862033,0.03454748346833833,-1.8134884132177873,0.34426995706458785,-1.5195614239296553,0.943335472202577,1.2681459750106898,0.5349889239275704,0.15467943460299435,1.3032617436538914,0.1417321330541439,1.2782004097581519,0.9578270419810657,-0.89290992477871,0.07818960880771098,-1.659146561700251,-1.600331627891947,1.1956686542758694,-1.9569273095329514,-0.3095913282303225,1.2478671407594166,0.30114795906135816,-0.09333709970984584,-1.8214122437738098,-2.053602255257027,-1.4378672661106506,0.5243041606486278,-0.4425081157379582,0.021396424521339507,-1.2254774260510577,-1.4264696624072621,0.7372603130119517,0.4919520619913105,0.7162794908896568,1.6083126358700108,0.7536570425330726,1.7050347443288,-1.518757602321098,0.8953779276186585,-1.7385937156758429,0.24499518885907445,-0.5140534638407805,1.3783965269135923,0.8345338781756766,-1.4724723355319465,-0.09852160055575414,-1.4066363425740718,-0.20789389803041275,1.7256631975554433,-1.5935718564043444,-1.7447642456703545,-1.8042401092196279,-0.5029770027689723,-0.704884212008117,-1.3668907084659934,-0.8729551621924412,-1.7397940518068655,0.3126868825233476,-0.6228599735868194,-1.7935145286638918,1.039446387720886,0.4213316460789391,-0.5496174785536444,0.7795707400541239,1.279385631372972,-0.0031536585620125313,-1.1010796986550169,1.309804300069935,-1.5592112662167965,0.01323284789368362,-1.7354172948352675,1.9422247087376379,1.064803515358996,1.9000245029741973,1.2200433978938403,1.3574441239965696,-0.43370479417828905,0.9443847537046592,-0.4623119783505534,-1.1308084837423757,-1.3042063019223749,1.0594123485357203,-0.9893811490622594,-1.2578231625021086,2.2449431387157976,-0.2506832217019718,-0.6673995734362237,-1.0684900525583723,1.2609912118006261,-1.1744899049244575,0.27512243310682394,-0.13320006993981984,-1.5780708414831615,0.23516967467978975,-0.9040851130461897,1.8265527021198604,-1.1380154481215892,-0.34559265493154445,-0.5767216589009161,-0.2727537713421568,-1.3911917620735652,-0.9333445222871355,0.9006683797678259,1.5839542418827202,-0.8190303599171488,1.7824094371610482,1.6761550176794744,0.9529465867992356,-0.07047335194928261,-0.6076999312612659,-0.754064831252288,-1.2036759070774128,-0.4144202902545686,-1.88470644888532,-0.5036430185013144,0.5215018233446442,-0.6226997869454524,-0.7999632312147115,0.5398413442636915,1.2249550130143139,0.05911418328113379,0.35027808657061116,1.1989951540891062,1.5786425005307374,-1.5531457398330126,-1.4401474741137337,0.15214095824542667,-0.07402889193441003,0.17877046814156083,-1.3061917901741404,-0.15471206553115374,-0.9143637132718638,-0.5439777689392453,-0.10320941840811342,-1.0809896369718854,0.4482327697973014,0.009375731610947128,0.03337831650087128,-0.3476555689713712,3.7016433525146795,-1.6989123784249576,-0.5825721188800268,0.6510567669630839,-0.8713413028777315,0.44311160049698767,0.6558896893846334,-1.1070657294618704,1.7421551304169525,0.872121478867035,1.8468375596770708,-1.4560545237064069,0.17710070898782948,0.7349025546430271,-1.6056832499868652,0.08286337979057268,-1.6260801536789324,2.003218880864216,0.2749999149613041,-1.2165153285693628,1.9872004859366135,2.1609335591774346,0.16252341738143003,0.525721954942378,0.9639138421886463,-1.6807111413648563,1.9502863455897144,0.5738690310299038,0.5475962515861217,0.0788334988111346,-1.5240202418313986,-0.9843431777396772,-0.25209133169435877,0.18498391569179584,-1.9562965146195737,0.7276083465833969,0.4941989820822632,0.6126992726718327,1.217177252042758,-0.005370607418185258,-0.632554351793128,-0.10979912289272861,-0.5976451358995457,-1.6731768253414765,-0.10284888492870678,-0.9649804775307751,1.1212478814875042,-0.9128046245739853,-0.07868467214441417,1.0684982863146082,0.182308972050912,-0.6321124230110884,-1.0170107479509554,-1.162122714511331,0.5953295111682815,1.0490326981108213,2.0595416121311714,-1.1513066317404044,-1.1335817087956641,-0.16156827444058847,0.9171753203036078,0.8468820725272636,-0.46037198916453725,-0.44724417295478325,0.0371704985835902,-0.5400829964644634,1.845144325110602,-0.26739845253537703,-0.8238189490834396,-0.33058226059720486,-0.2518209603984348,-1.0459690696604644,-1.1638414763543996,1.8743745315217748,-0.3673149690786401,-0.35868362944610055,-0.47948531786178467,1.2111113627953685,-0.9873259006910157,-1.417228633720322,2.7379201015479415,-0.8124778434327847,-0.22452305567450587,-1.2993619957916953,0.6101567499379705,-0.5552506367913341,1.8468919029120794,0.8310550811540072,-0.5356795566336158,-0.1310605680486803,0.19718243213185493,0.3546899914229607,1.1120565553657247,-1.3734128014061069,-0.3085592034415918,2.5481863678671695,2.407662035270995,-0.9510652767497183,-1.8383917565249086,1.3967738741708824,-0.5597653678560802,-0.931987818404815,0.45203380766788553,-1.8605852143196697,1.6742033572930535,-0.24871619079318577,0.7925379187977355,-0.13245012104827525,-0.09028543410566543,-0.7197349700046648,-0.5292611546354934,-0.22844059493685628,1.1821555887381703,0.6700495066595862,1.9538366307501165,-0.007853943115105465,0.024981108709322457,-1.695759002940553,1.1207497747009896,0.03420295609737145,-1.9319983756949983,1.1301712944783942,0.2802646672745337,3.119487334246883,1.9368463598156382,-0.6825030986672828,1.6779071424854708,-1.9442199792036403,1.0440961703828593,-1.6972061005053434,-0.6751756621503749,-1.1539454241640998,-1.3284210244715493,0.2600221698468344,1.0211399776822392,-0.6867046723763313,0.3970010368341829,2.131286009418222,0.6446819335750674,1.1480240235679293,0.8702069426729006,1.9554102292213487,1.8766588883071091,1.589723004492576,-0.18341742581392345,1.3925096040961016,-2.3637348384697914,-2.2852362638818353,-1.8781321717156274,-0.36962089718381047,1.5182277710319159,-0.1958408488984111,-0.050042966569621754,0.5636563933421259,1.1607066204230474,-0.2898262502606071,0.5668840601931888,0.3855165167901383,-1.4818303942890347,0.6926749470397333,0.8604778836982084,1.1951807212521743,-0.5883352005341856,0.1772518690344753,1.5871549639157692,0.9691324613864657,-0.2093833660452618,0.37313261975783824,-0.6986388435071779,0.6361983693472277,1.5135013881531802,1.3726384339943387,-1.4010336900081903,-1.0722765506221816,0.22352905496121014,-2.14843638780728,-1.1039962718829768,-3.431833714527719,-0.23952712611058005,-1.616909344009769,0.1739585311437921,-0.27720915428160586,1.651236082709472,-1.0837229197155442,-1.491864822181311,-0.03128312587269256,2.0210132801589284,-0.564931070545132,-0.26001773990615057,-2.711526397420713,-2.1314955063522816,-0.26670352153206117,1.1202025141941228,0.5461630923544898,1.7311148664289802,0.5397503104863266,-1.1613777546763895,0.859330198665491,1.120893337033729,0.5618379603777726,3.151342357856226,0.22066748179239606,1.116135972641358,-1.1016871304885623,-0.5927551668679134,-2.7876251602768805,0.44545348153086795,1.5683284615247595,-1.2878839802931925,1.0886523160956179,1.0898879295846244,-0.32316479216125304,0.9645130382639272,-1.0414183692952963,1.5183667910860061,-0.27898478957990175,-1.938605606211498,-0.2097984586610331,-0.7612420560663415,-1.1260671836492555,-0.9796823571765373,-0.085095826357739,-0.8404192402833917,1.558554064241245,-0.6950241071743742,1.3737278292884223,1.6370816714608278,0.6742615365798207,1.054655722381561,1.7298313217078511,-0.8009889790764362,-0.20972191071291063,-1.0312026721810876,-1.0412828108786611,-0.9424548794383306,-1.237697415263591,0.2974673443942812,1.2953049114682549,1.3557180843879464,0.08576808176613987,-1.7226986246019815,-0.7091173533415503,0.458098582106095,-0.2066475677730884,-0.985069863918596,-0.7435291483726076,-0.023294577476137217,0.6907469590616967,-1.665281205553779,-1.459332846038147,-0.5189104959436847,-1.9725863222161957,1.5127044653694866,-0.6172739083940365,2.167175420340572,-0.2251196876923954,-0.2303889378102698,0.2700133321004414,-0.3213029249963922,0.4475566054098243,-1.3345950990566096,2.062334546944461,0.8715855348094691,-1.6381450385343006,0.4607127254113121,-1.1325112077843764,1.3986803598088737,0.4485183698072703,-0.7200743370205749,-0.24805888820995653,0.08018974504090444,1.0872276390585862,-1.83129502206561,-0.9289275026076927,-1.579683341476614,-3.6964556266128796,-0.5787571577695131,-0.3552014361093423,0.3693683023352907,1.3751020328860057,1.2316680473408719,2.118593469876801,-0.8493296032668763,1.557561920611158,-1.2014475929605808,1.2575563783429007,-0.8892959688058263,-1.0109486717939224,-1.706417756017877,0.19494620128910017,-1.0014092640501735,1.3060984444229395,-1.8322646334573067,-1.5362455379189328,1.1382855236572604,1.85981542361255,-0.04790960957475685,2.1288433328182177,0.8545439588785446,0.2037652639564976,-0.28147520010386806,-3.2192028412235505,-1.3971727537615601,-2.038327419616281,-3.3507406618933455,1.098800349072662,1.3841336748169528,0.17776603418489062,-0.8533363866851295,-0.2799109385159865,0.8865405239475546,-0.6872603326767792,0.026800233877414485,0.03171383450058599,-1.409857443310414,-1.2824889736772338,-1.9693613736567395,-1.1795989504555207,-1.635718256700628,0.8757703383049952,-0.11934285658883918,-1.273869994944272,1.545422850716863,1.3829419028134717,-1.7651645908775084,-1.5677593688772216,-0.03826844882521854,0.8869979853657474,0.05967632073232617,0.3570037533798895,-3.248752792519731,-2.456882413329504,-0.05545744122542789,2.776501691703387,1.3972471875811328,-0.6765956396181153,0.8677912980596125,0.8743593573821609,1.210675059422285,1.061893173265913,0.23415596133326663,-0.9720671771974171,2.284551040126035,0.8623985229685677,0.9567525685778407,-0.9047397904427894,1.2963802795677801,0.410231138609534,1.5974705633916628,0.716453138885147,0.7093576993379642,-1.9400682448897903,-1.130350934585693,-0.987809555052599,1.5711014346485712,0.9693408072011288,0.04338567878872711,-1.839323025374193,-2.7724980321428574,-2.3862761212605554,-0.7092628719439819,3.0617517907802436,2.361835151885807,0.821662613129438,0.08986780398721803,1.1320041963102994,0.7570408060393753,-1.8317672015489785,-0.3709174471440942,-0.497603596964722,0.2769740484478478,0.43763552439302755,-0.8547077455581134,-1.6353091419593433,-0.2622720627905605,-0.9677854333595265,1.765455605806859,0.6311804758906895,-0.9487080111828057,-1.9115694304860298,-0.023053803613485743,0.2644020826228407,-1.3160957451241806,-2.531085063372337,-2.6923946231183495,0.7335543518815877,-1.6989030585867282,-0.10663630099582097,-0.9526636791554828,1.6326248617887724,0.17509422258196453,0.4970227636429703,1.7103384991388881,-0.987633300277469,-0.06976235477771585,1.077922527320523,0.8757020161008784,0.7837369286386621,-0.5609911229032004,-0.8533372058717968,0.33434407593917015,-0.015436185865316435,-0.12021016649275904,0.7887728862029254,-1.3821569486570524,-1.335841929436886,-1.3555602355233605,1.418227827161853,-0.2581627899171518,0.7626329062371169,0.6988028539992075,0.6020913300264543,-1.2136905954314559,0.6160375362086256,0.021734312616983054,-0.5978810706416208,-0.8807079875778373,-2.2168648608328554,1.2312676698592222,0.9074932030271599,1.2479940416199211,-1.3117754102513262,1.2588126682886704,1.3172110042068654,0.5518734095731421,2.856493759481792,0.2683121254062214,1.914266048477276,0.6738954518485788,-1.7666285602869811,-1.5417671645586402,1.9640072994461168,-1.9203967048031705,0.4028092176006597,-0.5329300147859035,-1.6855636532161524,1.7853758529692314,0.6988418804993572,-0.637395594218706,0.739257323003974,-1.1379526084855296,-0.1890667002908421,-1.594436096177283,0.04429453725171024,-0.7729716042689769,-2.572325080492725,-0.24533118714111446,0.9172694102970558,2.2153715249472734,0.8790474299248128,2.196791576791748,-1.087374808266447,1.0115457325200954,2.9856266540104905,-0.5357059033681181,1.6941336271750667,1.6256825221946678,-0.5293676598050159,-0.9297419459139359,-0.2624805753962117,-1.7745747564647036,-1.6300117103103133,1.241005820278131,0.22407071029061054,0.9964461702473778,-0.1362069847227912,-1.3647188158174766,0.5463911772370293,-0.21251697265786532,0.3159065443843702,-0.9935468728246963,-2.4623279947640295,-0.30129432819327945,-0.9270068385444401,0.008807829974993454,1.2972417158370981,2.1748532297352563,-0.7751312087092129,0.08408949992420348,1.2876469923583616,1.7148652437447345,0.612631881425351,1.4012230160568828,-0.7235423106978965,0.7498837107713663,1.159752408661272,1.8537281802890906,1.1408975524215552,1.2697517451696787,-1.0376114169952668,1.296568986639036,1.0819869829723494,1.3633093825754474,-0.8514361908083945,0.6312420526442519,-0.3188183365382177,1.4439440437302347,1.1730843558723398,-1.190375033704063,1.2944097842900255,0.16320856988493224,-0.7242941823167279,0.14603014047260313,-1.3890621961850056,1.562949670097617,1.8766528147282755,-1.27017282782146,-0.37085651535617353,2.1739691991578503,0.1507452686659248,2.538116027784995,-0.21416386375925506,-1.0120426274678502,-1.4342335342112722,-1.9332724111831927,0.6012730831478534,1.1444896822767936,1.3868502210520992,-0.5880378279455352,1.1579786697666972,1.4701134210331157,1.4131904310782533,0.28821903248254344,1.445244154065999,1.230244753752478,2.0701142058560054,0.9873069212299092,-0.048915632853806366,1.6698534714804176,0.8463635403483734,-0.3071463771458023,-1.3033592888694747,2.5069141817815357,1.1548469923603537,-0.7799445743955531,-0.30242892566003643,1.0276187975666493,0.1863889294586039,-0.7130416434565775,0.6355612801690497,-0.29241421933658285,-0.5224753373600869,0.9564403519823222,-0.42545134812788804,-1.4590632656697744,0.06595600051094941,0.11903149128174473,-0.16545321268771307,0.3291956929529931,1.2619920412082648,-0.4660492894146838,2.0024191628430756,-0.7166238526788066,-0.9480142710784882,-0.4628746022734963,-1.500000889653544,-0.4165805970008624,1.3487516116437344,2.015369282005343,-0.05412549673974697,1.587078935143493,-0.5899666553206151,0.5628700866168019,0.892479261740839,2.2272083656348878,0.6040814709797011,-1.6557085928635178,-0.11437324109151299,-0.4606546519646462,1.5504671833503965,0.685070786526773,0.49065009951688676,-1.105225537082223,1.8168560608918947,1.4179349387683873,1.449153397747697,-1.4930042504346748,-0.003907435661211878,1.6149941763682367,-0.894857550199856,-0.5485880374483707,1.0960406644940077,0.815353122670875,-0.6812317713798046,0.06087164231513996,1.2559051536341839,1.205411591991148,0.8209550175298603,-0.12405215881741456,-1.514614392808248,-1.716114649858123,-0.344433481230082,-0.6927723232791916,0.6337245479417118,-1.822431885163166,-0.7936101986455077,-0.8684560203227109,1.8813693954069552,-0.3596702367146358,-1.876270012074281,0.05113216551810673,1.8694512602804245],[0.4274234468645277,1.22150737573185,0.4059370989943867,1.3166396684540036,-0.027452372894400057,-1.4807164459030187,1.8703754706211173,-1.0944071123769028,-1.3009224478389463,-0.03998832363656746,-0.4188116993799582,0.37662673060775376,-1.914091735610872,-0.6547305136697287,1.6642602569008964,-0.17611323265008694,-1.9125034294523058,1.2107719115335067,-0.8245813774508113,-1.0679446498266376,1.4078095751279252,-1.941617544713182,-1.0699520667508438,-0.7996685711311509,0.10963532389466302,-1.4251990632650093,1.2243458881727358,1.1016445980861285,0.22224832864332633,-0.11489000894990564,-0.7465135331326156,0.4946616724202526,0.21231949707240805,-0.563616138376749,-1.0899925630182852,-1.3952392544069376,0.6510378964001472,1.3736098430868937,1.2212312857587146,-0.40799815168030407,0.3842803863855572,-1.3964157716822745,-1.0859892879630257,-0.7046819718390664,-1.9298818689723762,1.2316308599962884,-1.762845113712706,0.2097036828512386,-1.1105788935808263,-1.8392677200299357,-0.47174773338684417,1.2014349240455058,-0.3056770539464315,1.595875394829025,1.445661229611935,-1.3621096267285289,1.1876149259083855,0.00520076803001146,0.9909920454279512,-0.7824595089425272,0.1446599017931225,-0.18712178793481726,1.3632030391478085,1.5582754556318077,1.7206024706219307,-1.8383584040247176,1.5738732387015968,1.4327112148791585,1.5565100408518806,-0.17197130412684392,0.674244736196007,-1.6746334297156846,0.8764964672031528,-1.8175243367597038,-1.3917334119455667,0.8425480825037347,-1.959245910002954,-1.6050680250184497,-0.6733247632337117,0.003660548468204329,0.7916159000678896,-1.7331207209534942,-0.8880868462152129,-1.5061725198242453,1.7668917954990295,1.6626076789562685,-0.3264499516460786,0.58377990183771,-0.08262164823346635,1.3088653900778895,-1.798888703402744,-1.0548187683054973,0.39644168766908855,1.903980978506669,-1.5346118615112931,1.354473976195821,1.2163334241205435,-0.7877361447152242,-0.5239893950041284,-0.06899974047714029,1.2189886334932432,-0.1933388138250027,-0.813556939529859,1.053366984095418,0.47950468396485957,0.4760151036488017,-0.6092425442712571,0.9526381594910305,1.0347994252688282,0.16304279092006416,-1.8201109998135432,-0.8481913589294008,0.18411578445119225,0.37623518595258504,-1.2194933896772255,-0.5478443420864755,0.4604958351083858,1.0221762547516067,-0.03285268543398507,-2.0265678554953372,1.3509106866927456,2.2189587342169514,-0.5618725429206524,0.03068596073020706,0.8252180661635107,1.7729423650478546,0.9252512597484698,1.9706442003301856,-0.7097041208154016,-0.5614144088170413,-1.995778579504493,-2.4389504872666006,-0.7057500025926585,-0.7575310865280092,-2.2236953511575743,1.0144525078067632,-1.4793119337866107,-0.0642320173798934,1.1669668721943387,-0.39473600668440806,1.94725767276302,1.276318213544152,-0.9735890783864428,0.2994397196748048,-0.04117314022149376,-0.5172706168480404,1.1327106084125351,1.0686821533664725,-1.3092888048333102,-0.11600076570721463,-1.434204255792332,1.0936467912316892,0.3428352757284418,1.3903047975284348,2.540681414086486,-0.6382660412217023,1.0134256459322424,-0.17727344292457642,-0.7579968394383025,-0.37919902681693873,-0.5214784012589123,0.05092010923958979,0.7086779470316822,-1.6025084087203567,0.9753270045976665,1.9660296353032929,1.9994446527716434,0.1308599699448236,-1.9378984184972445,1.186088205394386,1.0830335996470144,1.8221537685587286,1.5507298947518697,-1.0732971606136468,-0.8951954480756983,-0.567366700841605,-0.14853201961261606,0.7626139820275563,1.0179865180002423,-0.8349269096904228,-0.19866033605342845,2.3450023571554213,1.9821313582544775,1.9630036442910197,2.5594039860534754,1.5202449083104141,3.191729895923328,0.8060352343593898,2.3374843342194946,1.3253836513067743,0.7718383831472476,0.09336064170438496,-1.0831956431451109,0.9325568119338941,-0.5072055383254781,0.1559227248364433,0.2024456876400093,1.771075214445977,-0.4640851964707145,0.587841097381697,0.23833435307555073,-2.5149497271810133,-0.7042941966646304,-0.369280692424449,-0.9866871675019472,0.5517760012714087,1.3406661703811147,0.8500147724870338,1.7403960330623853,1.485517625169147,2.141624241598479,2.720329721348302,3.5652358879495494,0.6755596020009903,3.0702197037525623,2.811825677986679,0.33889451773708834,-0.005759663790576463,-0.34606915634624585,-0.1721345021037529,-0.5107986923124551,-1.247324272040246,0.21501370323587143,-1.048893464455963,1.544110431163168,-1.63221393831402,1.6243830627144602,-1.2243745402129032,1.8425937700899746,1.326432287619166,0.46165867385768444,0.7607172576755243,1.116630492475553,2.0590613098165194,-1.2661900149609517,2.1301134707700693,-0.6033079837553165,1.796695360010243,1.6169606911282477,2.639897807594571,3.0260873246792213,2.2839219905623795,0.4527555365800705,0.5598833150477002,1.2856895599651923,0.9244431923883644,0.18757952895448385,-0.15450464596051283,-1.0964151858551219,-0.3715749838166061,-0.5768486610643698,-1.0045580041911781,1.2555460016609756,-1.4118651045734394,0.35818417182897794,2.0317872312261387,0.7918399958791026,1.6364449159521572,1.6627618487619886,1.4659486118231904,2.0667669515003055,1.9170250771169162,2.5518592973806844,-0.3713367401091739,0.15441627766270008,1.7014736717650762,2.7445607020995446,2.329832890392783,1.4761898175890824,1.506976738757715,0.3868592150858803,0.5856205754916401,-0.1522612071301367,0.5992765371680568,-0.5553159541938675,0.9315034078612218,-0.3054728339793421,-1.261988104336141,0.21704228841944415,-1.6910742527859715,1.7623851252782237,0.023520943500895366,1.955350386278625,-0.09882850525854975,1.6086861089947497,0.9158911615681081,1.5971937900771092,-0.18704749476596136,1.4728588974505656,1.7876774094823313,1.4771301665132601,2.0405542229342717,-1.2630076277758682,0.4676868176810721,1.6266935190379028,0.845363427919588,-0.09747700448661711,-0.03072095178797868,1.2167158203917543,-0.3614123993095026,0.7177150977824317,-0.3833758205626774,-0.2465181501666092,1.5261886726261842,-0.4786943855475223,-1.6260737527877762,0.22816912496193864,-0.8303361584380821,1.8351374652041217,0.8875318970859012,0.019974162951174764,1.4275181814508704,1.0827430929565387,1.7728940369702904,2.920149944013581,-0.24503225509352092,0.8574342965823152,-0.04834504621553053,-0.0862652576117854,1.805285664010894,1.1854703577682768,2.772316425420791,2.162354321570698,-0.5250385349852243,-0.2668863423550228,0.9359095655435212,1.132885232666361,-0.2623869501022209,2.8341922140455655,0.0012843014472634676,1.1330741919139433,-0.31828185037399237,0.06040136094968602,1.7283813159405705,0.2383291115466643,1.4591396926342484,1.4897606496451479,-0.3473312345364376,1.939673936274938,2.2046700343154586,1.6941883104180087,1.5629956125953737,1.1018736308001278,-0.2200421294611323,-2.3180460783751906,-1.7288450501198038,-0.633426510732008,-1.5155308795759521,-2.804728988868568,-0.8537159095239488,-2.075683539155942,-1.1209925027849494,0.26354313146029473,1.9257695470331564,1.0070417383794874,0.13430352642528717,-0.863761320461706,1.7986333864133037,-0.5774850916966262,0.28271922887784384,0.7572252145810111,-0.6604588127382138,-1.380458958990003,-0.06421200840241852,-1.3842733092049135,1.330340670714841,0.5779518432990992,-0.4770028443013401,-0.4272674567047454,-1.8159221691078355,-0.5272597322977959,-0.7835535787406875,-1.071760165325043,-1.2651792559509625,-3.6809734644377334,-4.157840694473967,-3.5224759322058365,-0.2176885347887444,1.2422741835744284,-0.6629212130993989,-1.2769697504871769,-0.742864536063988,2.4109638715553205,1.1467659545551938,-1.0808201672958075,-0.527369402096235,0.9035592949169057,-0.40355764064620886,-1.6018182926847466,-0.9889100424995269,0.2968227765799466,0.026446369725400598,1.2811232700758244,0.7171764253910391,-0.8944731399141925,0.3576812178756564,-1.1142733477653046,-0.3726656854168674,-1.4099478710365403,-0.17858778518612467,-0.41610445917946964,-3.6214680731545124,-1.0135714177267492,-0.7487413006173792,-1.127807623671502,-0.3211017030806816,-0.4567178812659641,-0.24293961674162687,-0.4955631082945584,-1.6612690838722273,-1.0530225923552852,-0.07223465095203438,0.1888793929857356,0.16537609865842143,-2.728336304110046,0.33733868870517114,0.23990737513004723,-1.3180933120831408,0.32058657899824,-1.0690279593134586,-0.9885270025278501,0.6870831879686954,0.3939443504305713,-2.0977188092419476,0.7545761412120098,0.396141091070188,-1.6381668807078587,-2.2915741696396332,-0.288691980671514,-0.7124712036049754,-1.4593516765244412,-1.0891528064954121,-2.9232496390348515,-0.5710301983572537,-0.07395981709993885,2.217124156228967,-2.8422607004071487,-1.0281594024883094,0.6563939131827967,-1.1709464696951826,-1.1431991355806737,-1.1676067269262982,0.8187879037777404,-0.5003006618591954,-0.7443078067322766,-1.8205381848491387,1.2624462826226714,-0.6636405472165833,-1.8025795652129393,1.3516332250013072,0.37825065207564973,-1.3728501381372986,0.23995162798733716,-1.811158245440824,-1.1669020591447108,-2.7599249529220393,0.7825648350534186,-2.071362211440698,-0.5868865333898351,0.6457183469148569,-1.25831364694007,-1.1354922212199834,-2.457707429322349,-1.5325248945704881,-0.41726251481763327,-0.30218763736969756,-2.4336405486811623,-2.1501301470693734,1.1012628267142597,-0.3745809731503855,-2.438617098234189,-2.1550869189256785,-1.3308120037262123,0.9838569913408661,-0.4110833205653193,-1.13365880555218,-1.4943850333775242,1.3820124366556954,0.28917501932298517,1.8779952871487446,-0.15591032770125335,-1.5131241320328412,-1.1393751860216015,0.040441272072651475,1.9135293779437768,-1.3922730345707863,0.682312274711562,-0.18741817550472145,0.026899412603699577,0.24680260229063863,-1.3258347176551364,-2.4150610419409335,-0.04677700241383981,-0.8281627880206086,-0.697415699243357,-1.2750096063328784,-2.3647958597329457,-2.892158877323197,-0.584130770227637,0.06084243614019366,-0.8601075846656124,1.360215120282772,0.9513098082170093,1.5362240865160288,-0.05786527820071229,0.2851282846929774,-0.027154467908016622,1.5684278479797558,-0.13438265589198012,1.2109028631879883,1.3729082223002942,-0.7549952669675374,-1.2416044525197425,-0.970993659306371,-0.5307665305576104,-0.14424530153060922,-1.8038933215232469,-1.0201029995570206,-2.331268424218665,-0.41752304944984064,-0.6780687375467918,1.1161343130754613,-1.0646208093744793,1.1014897657606546,-1.599639496879129,-0.3642469276961147,-0.5148365773498581,0.020161351712304272,0.0871477660979856,-0.7212453183597404,-1.6634459779267496,1.744679141700174,-1.49225527390779,-0.2663808036875487,0.563431048870813,-1.647791071850016,-0.985953432419866,-0.7318248052074641,1.2550828951009565,-0.8149472197893446,-1.019782338769898,-0.3340833528952492,0.11908986806290975,-1.067808952940644,-0.40715347102140453,1.9465521538198245,1.2920595033093605,-1.7006432904507918,-0.5720655356088238,1.4942929879455897,0.5540687514496916,2.773067863328941,-0.16208563818731478,1.717113182947175,-1.414330465007653,1.451199630590212,-1.1289616353858198,0.42542871984878267,1.145239861260596,1.6782461203339794,0.11510880422250214,-0.9478763285886497,0.1571567037169306,1.8317175429715495,0.6503915252168574,2.5842950697785976,1.5709924657748464,1.8525001681096385,-0.4952584056352823,-0.7390246989774605,-0.6831754282124227,0.7201371823654736,-1.1427194815917725,-0.5573203845141074,0.5031227486782158,-0.12701428663128486,-1.5694090006544172,-0.7037874840266306,-1.2030326708206838,0.5180689303467977,0.008238277208957846,-1.006600286831999,3.0921428631191445,2.1723693888478177,2.7073244352389185,0.20451512673207925,1.4457305801974294,-1.7221649681661249,-1.956537922382337,1.6575202723526106,1.8635500353120475,-0.6026485991751404,-0.6274613008410862,-0.7269759565533805,1.761936536850337,0.40670227011010496,2.7716253202642647,0.27095749516737644,0.30305510068827246,-2.3598243367948597,-0.2523249356894493,-0.6572262615369562,1.9798279264759135,-1.6420344957121171,-0.7896917799438321,-0.06717112168967401,-0.35571921364186015,0.8015077915695309,0.7806776375110351,3.3424296410779526,1.1846016983564247,0.6035853022530002,-0.12690271918439813,0.3424489341647576,1.0875938267539227,0.6291532352170961,0.00010427758844034099,-0.8023905700366485,-1.0537017968954738,-1.1145184737056009,1.4019423791575387,-0.05177396907992765,1.4269030821884703,-0.29681736134399084,0.24044346659059682,0.018132964165621195,0.2908780458911237,-0.18453593212854455,0.9950924556579815,-0.5652034933544262,3.0541368570235345,-0.2796890946751889,1.803293955513772,1.896242363377334,0.5048534072915335,1.318854674640081,1.1027450921244153,-0.09340004093481731,0.7418598805108688,-0.3092093795853941,0.5673545255718511,1.5756950185237402,-1.1604137588561143,0.12967652175591532,1.1010892250974358,0.532611333086912,-0.7329606413086895,1.8909210754728645,1.986701021933302,-1.5919800680627578,0.8463480828800509,0.8760011757397546,1.1686024539179645,1.8210459522185432,2.4035424860041124,1.4188133540402244,3.355772847566515,-0.8010481479283279,0.8633575961811317,0.4301332053772606,-0.18588726159978688,-0.5552637640358934,-0.5407630165338113,-0.3902052413489378,1.03984989411594,0.3504036538309298,0.38793372448818925,1.9656597481525175,0.8566748204236326,-0.0641680546231873,1.539665068016641,-1.5760004514536199,0.5240217898856097,0.11883317901784629,-1.3801398962552835,-1.1451657115491662,1.2114544247612211,-0.17794498472306017,0.5120497487598386,1.787154142824997,-0.469868645117786,0.7581288639100756,0.5716786451359904,1.0985240938683651,0.5194415894898456,-1.7226013913312082,1.2878357328463563,1.7797044683433851,1.46932978749153,1.3659848599100803,-0.02380592487438438,1.605463804656225,0.7412662309622348,0.9597996922508132,-1.5505840310298893,-0.6013737161209258,-1.481943898615804,0.4085036450548549,-0.2698587983708276,1.4293218437594488,1.8730508129586845,0.702648878812159,-1.8124931620545075,-1.2696123137595186,-0.14511667907009534,1.7674196330178769,0.679648493657156,-1.021679037097774,0.28487774220156725,0.9681896103839001,-1.0895069567196096,0.39188460516994145,-0.58001739751531,1.0211869916483791,2.7909157702639518,0.4052941442744878,2.7919654722883345,0.29698774301594283,1.3099983486649938,0.4304732408765351,-1.0398959775828525,0.759424326659081,0.5686608818249042,0.45888477977511805,0.2632066128484631,0.353181667604393,1.9706387407804624,1.2074650037346126,-1.841743362186568,1.7215071493607423,-0.7848521884787578,-0.10561707467203431,1.920066205556412,1.2445088747785589,0.6748162147508338,-0.14780897941649113,-0.23919601985113864,0.4515212763684901,2.5215896594014295,2.5034464063087336,2.6721178063040325,-0.46178502012085304,1.9395275465862538,1.5116923615989795,1.6214331749152349,1.2798731384402193,2.768994794057285,2.381635383241865,0.5705822386615718,1.4641178024014938,-0.6519223810369033,-0.1890237361351601,1.0245876436701473,0.696390634051772,-0.0918077992058306,-1.1503506285465424,0.4326671805429907,0.2563716130699971,0.051284090736232635,-1.730916973021725,-1.2016474168828808,-1.4692668182886017,-0.9634107619690966,-1.371916712508026,1.0447285278271454,0.6571689218537036,-1.887369073256851,0.4951063840843289,1.1302740446453416,-0.5753942058579078,1.4382291750550824,-1.7111796792565825,-0.03663339813447352,1.8592805620244655,0.9121694396669193,1.602453825611037,-1.8439412593665139,0.9820827483797344,-0.280866934951857,0.6939087357974814,-0.2904764729773026,-1.6976629154078582,-0.8278740845450008,0.910547200788022],[1.896569744010014,0.6630167538095764,-1.9334080977380168,1.9914776409995847,1.2109256801843387,0.8982064937572121,0.04478691307334426,-0.3541153316050538,-1.6137566804853396,1.2457812993434567,0.07521358844643178,1.6527331521276958,1.5390121181189036,-1.2575709195737796,-0.2572541183634238,-0.4330448936842119,1.8970689525031919,-0.4342484603082841,-0.4172215609531431,0.519139588351603,1.432806074203273,1.332607119838011,-1.9313902657128716,0.19196241608009856,1.6722213684765377,1.0930712869768122,-0.04237540863043687,1.959082256745181,-0.03876162008555273,-1.6128241566308885,1.8636672832504155,0.9657179458230098,-0.35814326329242885,-1.6344014336363655,-1.8334401322850677,-1.025901610287846,-0.20140521711843837,-1.480142092452382,0.23686510274913358,-1.82573859972982,0.5236698348100403,-0.7854360820495393,-1.9781144879894255,0.9751532093578101,-1.5001491129347533,-0.010511191147703587,0.356734244397584,-1.7494204529980928,1.3762013475905073,0.31353368272460796,-1.2701603170446787,1.8076978799187011,0.35040154193303774,0.5022658218597176,-0.4790652559677051,0.48631876413381914,-1.7614593784281016,-1.3255587901102217,0.39465679146412946,1.88399063134187,0.22316861912741984,0.1791520070517071,-1.387932933984966,-1.6951043950390545,1.0557805160573206,1.1867575361777112,1.190398659028569,2.161817996618557,2.148197005017946,1.7207999089865167,0.9865352601984713,-0.42476827057311584,0.5841203491659342,-0.23168401728548157,-1.1399131822573203,-1.3326913976677932,1.4673669414651855,0.4327275623724956,1.7007202471440064,1.5542785646193318,-1.4598341175053378,-0.15619440176308524,-0.5152125199315734,1.3449821414379208,1.247441900462941,-0.3593519017861908,1.044467818348349,1.8447408195624704,-0.541430332227436,-1.9732242727055154,1.594872691011012,0.41859417225465995,2.1036442682439542,-1.0668990455973395,2.804798787661065,2.0011153346783592,-0.832186883509265,1.2521803056364824,0.2162514650953277,-0.2143366109111003,-0.6246404758584404,0.2319077070741932,-0.9746979450605072,0.2100483385222725,-1.2753943882580037,1.2248870082481125,-1.605202843903656,0.475878138823624,-1.1143386854074204,-1.4480679321239638,0.9602451494014942,-0.46400692228409657,1.7625065739850765,1.9574735062197641,-1.114098536556745,1.9264989324786885,0.37700375499515226,-0.5638717153898296,-1.6456672236092884,0.9298414191984143,-0.8092518134588678,1.09029321608104,-0.856267117751585,-0.24750255409895908,0.33785544158328923,-0.7440983886416536,-1.3903188621254379,-3.229291825375588,0.7460936306787499,-0.524139014933836,-2.4332355669964234,-1.3476761173216885,-1.3802004365813565,-0.7636718855242564,0.7691511604549243,0.5623559782826136,0.2448836959029166,-1.5356314707372913,-0.7436121067157531,0.4933840601940641,-1.7256866137343243,-1.78550743410179,1.0576543617160803,0.9906261013446498,-1.2553033826277162,-0.4987354765596963,1.1565358783842339,0.49141662663684504,-1.2563478108807664,-1.4228653259537984,-0.45361517876879176,1.3541643094020799,0.24614397317175196,-1.1769753109544348,1.801852493280629,0.10157066153316575,-1.6841255078899868,-1.9149871118176052,0.9800821345449403,-0.28485877326473663,-0.11333569864897204,-0.647139563732856,0.10382883443356399,-1.9513230306725071,-1.4988211507910618,0.46159850723816176,0.5242931440548744,1.8331426319837338,-0.09949178904806111,-1.5860178214597613,0.4724675660490832,-1.8361007145836872,1.4727900158564728,-1.1947047599867486,0.44282863560986363,0.11814989848357267,-0.07883115144596747,-1.2113080430391778,-0.3600180381261794,-0.9999071616071245,0.10501085603055627,-1.6945633739127635,0.7743413108815352,1.4717632119329767,-1.1504123123467187,-0.266304987829086,2.3203740255236305,-2.2644744120733984,-1.0813466685945587,-0.4523847227656877,-2.220132661780376,-1.0109543101427787,-2.6565389553363916,0.5753396697012535,1.4673395328518155,0.016764941431280395,1.3988172401293277,-1.8183431746218284,-0.1576362148333705,1.1542929779070157,-0.21625267497806214,-0.0402523150533573,0.6278163033371713,-0.9352307910805291,-2.465305614790816,0.9329810734699457,-2.046746581775396,-1.356511717467512,0.4142962545322557,0.8064352931043799,-2.1815506164144676,-2.1049016168105323,-0.5668879169552995,-0.02802880410201623,-0.39523491426309004,-1.4657635504573752,-0.7035188390685575,-1.3674325225188095,0.45184349469617463,-2.9290711752541214,-1.983383737464037,-2.1312576420584652,-1.5166302559828766,1.5088893351508033,-1.3322077242151333,1.4610992287510511,0.7832745018424122,0.8739549371812406,0.4665342050180809,-1.3190461887294358,-1.3815727288822848,0.06271105474968452,0.574561793753668,0.17098850016806647,1.0162314078582846,-1.2056927692553057,0.17906966470551228,-0.8633838392416773,1.2177681644876575,0.826286653301828,0.23458436342512226,-0.5612222390798035,-0.019110971297939032,-2.575711699406413,0.43547100057689836,0.6326558176604231,-1.2558255028934355,-2.3043970025883453,-2.4416157055088172,-1.3426152231946051,0.7274050341886227,0.5678618270674506,1.8881204643210192,-0.952332628073884,-0.3194693266359614,-1.1687783844842647,-2.0410975290212887,-0.06959604293446288,0.003822079096687755,-2.169652250027569,-1.8468370715133426,-0.6488681352054271,1.8441959344771517,0.04787107142114299,0.09352001226236721,1.3479214013341552,0.8785538216597526,1.3414112179372393,-0.43030155720318886,0.23277690022410197,-0.5547980292355934,-0.011068625970712674,-0.886451781544414,-1.0745011836757183,-1.438599081281899,-0.8927410704566924,-1.2533826807728885,-1.2753737859735128,-2.0089269723469356,1.8947926619545785,-0.02629869786898434,0.5495105003522143,0.4337424351542508,-2.2917513564726155,-0.443706764161091,-1.5512853797010575,0.2998701619974279,-0.7022562585505904,0.5259870776345247,-1.9963616602180039,0.3403139208071643,-2.7152015688673985,-1.695095754274925,-2.9458165125446265,-1.897777820349575,0.8025435725114988,-1.9856726663085302,0.39236661593656874,-1.4403555437580726,-0.765834604414067,-0.5361571493305624,-1.9533164487779553,0.3519739836951646,-3.2929998293510505,-2.3576959549289227,-2.074393533358401,0.9054411374566358,1.3397846030322873,-1.2737861854376737,-1.102408418710793,-0.35114251806310054,1.3953122018685566,1.5379586484902728,0.1332005907101883,-1.4404327516720385,-1.6368932354609216,-0.19758425394998858,-2.4590063090863588,-2.3020400588901793,0.3880352763608947,-1.3626887140010886,-2.000479347539976,-2.500742274775014,-3.4951841815518954,-0.5104796422028767,1.2195076116615757,-1.1994169962940182,1.7149953941524865,0.36810424460815644,-1.3002147521610863,0.9211464401568625,-1.0979001227202467,-0.19387623454287792,-0.006322352641027314,0.8247605118049505,0.48247545370799816,0.6840943318842987,-0.6544317230783284,-0.6161560446883275,-1.3812189870800782,0.6067773874552914,-0.8143082231193174,-2.4248280117342644,-1.3913219146506832,-0.7905159859330587,-0.4113122470510253,-1.4425641426055396,0.012713275179508087,-0.6060339329394195,-0.5362640752133897,-3.258167371188466,-2.937938144350655,-1.8314005120006274,-1.0436606746430768,-1.0957525442903513,2.280320690593867,-0.30505213882775284,1.4917162831398831,-1.2803583215742964,1.950496981812013,-0.1424524526178871,0.4470756843131824,0.03311570993827695,1.859217428170751,-0.9785622581429916,-1.9505840176496971,1.6444536906596052,0.25307259270660204,-0.18197663905017744,-0.3158044550622358,-1.8276054325332105,1.241785896449815,-1.1131244860364395,0.01351206807763457,-1.252930194886026,-1.2323095700856939,-0.9508822554244581,-0.6329510988736609,-1.0880173079662911,-1.1740891564430525,-1.6250034007714822,-1.4285938489684,-3.402270201722297,-1.8880227903219813,-0.14125586080299365,-1.2016349850264132,2.2289180458730864,3.3057408370615016,0.6744801241305026,1.813642549611186,-0.6845230974264288,-0.2916705119016977,1.5847500289699474,-0.2558686032221791,0.9970824960698107,-1.5307568725262923,1.4924821953819443,-0.5304039096821602,2.063500294471734,0.33070478879338183,1.2780178266807574,-0.615680208013795,-0.011800357624962177,1.935505982474053,-1.140666199294691,0.4022951478183252,-0.8645356899705321,-1.8968982003909918,-0.2468079680597158,-0.2883764281214704,0.10628166298143721,0.6293227605589437,0.3029192361173415,-0.6000747788417775,1.7407734016767835,1.5503302090117126,0.7863589701450561,2.088741454799891,1.4405468211239858,1.5456009509912378,1.0090090571381003,-0.697106033784098,-0.30869754749303113,-0.9119820801658755,-0.049269901320845556,1.309910132363731,2.5258398085307405,4.2337841619155485,3.2962789372506474,1.102739974247083,0.7093030213761395,-0.688766617798511,0.9422299518532244,-1.192739054912731,-1.4055742891300227,-0.20747350923691818,-0.4604545402558411,-1.0685509807868037,-1.0842904783927123,-1.2595204309899184,0.2833572822958031,0.47233695426989675,0.005425605293957897,-1.587744788874387,-0.5623005668464547,0.8777854843332534,1.234268766159766,1.9003171178112792,-0.22692809779396567,-1.6570770332625568,0.8652320367600411,0.9455548758757876,-0.8365446542563405,1.4440335265320712,1.1323866846354471,0.7213501727526911,2.9995591092770515,3.7181322155090553,0.3964040687618937,3.0203026747720227,-0.21999760506519497,0.2129872252881586,-2.661698588065048,-0.31440832617160097,-0.5462641418344019,1.5243977444387342,0.6252084738013022,0.9423500448605676,0.3607945340579556,-0.8563639437395049,2.6250024223143567,1.1561156348235506,0.19748213265524384,2.369247606377945,-0.36115987826852897,0.5655347539411012,-1.6632262087643168,-1.428313694883049,1.5994542889493135,-1.0071122419586649,0.48593598367694335,0.5389941387643925,1.8722185465623904,-1.09101933357636,1.8031330707898048,3.486530959770666,3.3692767622148176,2.037395674216659,1.0105203466120907,0.2726633956846736,1.1859058701863,-0.31698560403378734,1.2753464161855663,-0.491939689915017,0.8522194520987256,1.3785423335469629,1.2918503187342278,-2.022478583755689,1.4208655693631942,-1.8757395802295969,1.3667246442674528,2.0386730248123093,0.1675019039980676,-0.018062172271127497,1.8575768161565296,-1.004236082283352,-0.9988847508194724,-1.9695021152048595,1.6785097387183248,-0.5415870264829161,0.6615785837470303,0.6712587990762521,-0.03401864588119185,-0.9214752050925409,2.382916409666083,2.0704491508363057,3.4166892217524274,0.7277366992338128,-0.8306806408074633,2.3242979619414896,2.008120813050938,1.1668992521066652,-0.11488718648113637,0.7164509373419657,0.6480703459373736,1.5075459382654197,-0.3214516182994899,0.36624181498929886,1.8721619916475365,2.0644915912446793,-0.05971686948777135,0.07305381377420153,-0.022657162031689104,-0.29007429007613245,0.9224692269830103,1.3159029499820474,0.1023514046866764,0.20845810144891164,0.8825723185845067,-0.17898817484382712,1.6874034598479075,-0.12486181356074251,0.5774935545804333,2.9851997746255825,2.3650905800269153,-1.4082471165843762,0.5353953881992192,-0.10664539177237184,-1.0358560275484534,1.5209737358320903,-1.3575148731801185,0.5358213792440483,0.3832118514869455,0.34433471174226304,2.062421186741232,0.1619245455381563,2.659235644958139,1.4339605400204023,1.5691928113603033,0.10276090675236647,1.407871602153456,0.6401178097691211,-1.4575686410429256,2.688114175252976,1.0416171341431566,0.661110150404038,-2.589474719379673,0.20273028428308154,-0.6563304240927749,2.008441550390295,-0.6261036906382997,1.8436792250254206,2.858636008668571,2.2102060423555026,1.2402438044589406,0.9233604922506861,0.221236035212417,-0.467054669743937,0.8697810220239457,0.28956520864589375,2.5362175704272523,1.3008504040352173,1.9131770471679164,0.30336306061743196,1.0317022929048325,-0.7604974350959492,-1.1637242122280809,0.027560216545940257,-1.0645860548434314,1.45230323267998,2.064648097443813,-1.1614368497080148,-0.29144961395125774,0.4463239419669203,1.9963889592052784,1.2486944018977402,0.6424564188696957,0.13017699968976784,-0.053823686349498086,1.3681142012444587,0.9258155588675459,0.48963504010123604,0.3272473452484348,0.14651795200367526,0.4455504025285621,1.904823595715343,0.8402265309882911,0.7362430982827332,1.5300316299085164,0.20228882843942758,0.9256229086508317,-0.4194364312293775,1.6995279737224167,-0.24663065095247563,0.8532410772777553,-0.09477860925445224,0.7102631371749099,-0.9212914063670802,-0.6894528237156891,1.3289040686554685,-0.6682887530316151,0.08150695057235731,1.1838761258952546,-0.18935427862453208,-0.3780218013530954,0.8297112958031051,1.2816584628168426,1.0849758120689246,1.134028771576362,1.3017496460296585,-0.2763620790372838,2.2211090507780766,-0.06550321161557167,-0.3183807470046729,0.5590223607398642,-0.31529092570904366,2.631869452800301,3.855593578900945,0.5863078771947112,0.26205053820785945,0.4433100654745897,-0.2161664898412744,-1.268993073690638,-0.020852349715618883,-1.8453977824170078,0.3191928325789686,0.9482226918772596,-1.4379582610707697,0.11632296820974218,-1.0117647071790188,1.322040769331372,0.9351172384648144,1.2430079055097292,1.0066759613061376,-0.16167949891074826,1.939712654702499,0.8989506486483665,-0.20855890623463663,-0.330565478431209,-0.25567368993515677,-2.4303136617375523,-1.9819410870746197,-1.863080767048076,1.2841739331165578,0.18171628753625016,-0.5933242561122165,1.873201590213252,-1.0123929712377477,1.4559675799343426,2.024929958229427,0.09116416679406264,1.8516457338242134,-0.2639111945835584,1.367975380402112,-1.2460575374086398,1.2940254027414633,-1.7623589438581042,-1.0433524048865939,-1.4081188843905212,-1.1116849074769481,-0.8397884066095013,-0.1175658548073116,-2.3048788216668132,-0.5117593460758086,-1.3136927018306335,-1.8086750392863575,-2.1838439832489605,-2.921861117555006,-2.4098452397147883,-1.3546332513113168,-0.6139543323250976,-1.4536030651186174,-2.7929464612266575,-2.1010156079194924,1.3374678271442115,-1.557947595616497,-2.0502764227942425,0.6885752435033935,1.2279611204145673,0.9845971355049654,1.916051171459201,0.8676700333959291,-1.8166850703805513,1.5717145334322697,-1.6240413593674738,-0.077394479313877,-0.0038460679930675855,0.9117108024894436,-1.8721483959505356,-2.1007658921469714,-2.639440526367786,-0.9020212524401107,0.07138811674596597,-3.0487137294791418,-0.46204500575265706,-3.290161573895418,-1.9922787324737437,-2.4598213569180736,-0.5673364485930386,1.0706224041981456,-1.8738894936507484,-1.5615813754467844,-1.6986004794895635,-2.079025240284694,0.012414139891090342,1.4302156421682766,-1.5712332528821151,1.4028416162794333,0.37934224837776576,-0.1798566767095613,-0.631702550393821,0.5495412490913791,-0.2008080132542388,1.0412442769084593,0.02841815565980482,-1.0110088154129733,-0.42344670116758576,0.12731594225183457,-1.8422077458915698,1.6344955464137538,-1.8236207131629258,-0.7266316628456847,-0.4757816432758198,-2.140793592912855,0.12229417302546691,-0.7684257018928279,0.7532281429494024,0.49066226679403724,-1.8610780283545056,-0.7374824433379071,1.2478741766240975,-1.0478093026711135,0.1343290778895212,1.9239770438353938,-1.9472792429448509,0.6125280248116658,1.122334189192273,-1.6940758462039627,-0.061823531436422385,-1.6571204766015466,-0.4322754437605507,-0.3367517912460459,-0.16538377931280063,-1.6019648784510299,1.9283055102976456,-0.6351513070239043,-1.114145020042206,1.316487335176947,-1.5181724908327483,1.2765454577690507,-0.839144013942434,1.5256779590229999,0.7652324573820044,0.18938340615367324,0.4570238117498234,-1.0731302521043984,0.3437642166101174,1.5058258404391283,1.6684688559981653,-0.724550721829993,1.3881032358779093,0.8614655649524359,-0.4032540139319494,1.1273851864110256],[0.9002275905441248,-0.11871288369380384,0.49957912790103975,-0.7798272789722187,1.6732708122063817,0.5282116025917833,-1.3061478609392356,-1.9150230719956474,1.9142092831471853,1.5361495569967838,1.9632057649361059,0.7759135633091718,-1.2769571516500493,1.3548753853689748,1.7324840652331763,1.4642683665063827,1.7514809431734752,1.2144784332833005,0.011786336801544728,-0.5402173696335808,1.233049905438171,1.0895163235087848,0.6006401425697243,0.2720398654012639,-0.7529765177906631,-0.8225214084865078,-1.357382212384871,1.9557955848329547,-0.3435107506164137,1.6738779470956953,-0.05885363165888258,1.6233527380837938,-1.3617393019980666,-0.3832780564809669,1.1529882898111967,-0.23854347271790097,-0.47663299020936645,-1.2864324438097339,0.7416937589302466,-0.41432031818275084,1.1906252759607685,-1.0135076974441233,-0.7771966781335066,-1.903511925076344,1.5681820621601215,0.5707689155642125,-1.1698429851369054,1.1275634362049574,-1.5753951582726915,1.9375418874577965,1.1819346821986232,-1.686356570495023,-1.0536904850843687,-0.8754241859597913,1.4980109421744014,1.2437278474614306,0.15102367461084754,1.5347722248040414,-1.0789955530607347,0.9171917928063865,1.8243266900605097,1.2335856673431134,1.2938674979949678,1.7146704197028175,1.7153685780251584,-0.7763911835897889,1.4577125085966565,-0.35467825891550925,-0.24849202957234862,-0.41162644255411796,0.6641380598186228,-1.4391577039647685,-0.23786440431328537,0.8461193482897414,1.1053826739629993,1.7591439109381446,0.4419389655447026,-1.1548741571865022,-0.4333865352756156,-1.3512506459642635,1.602944333113341,0.5049052459918617,-1.3965805222133847,1.006080854071345,1.9690165984930328,-0.1347082685164951,-1.102491831828746,1.3161758541811774,-0.10324884741816505,1.0407760740055036,0.32251931663607925,-0.5693047122862775,1.2209920364220326,1.1471906299883157,1.92923106560466,1.3954533983396846,1.1147052622174134,-0.31645879332697,-0.3917883297725042,0.21181395637249706,-1.0068816323858656,1.7721637152631837,1.6527955548073154,1.9527597823157097,0.5464063210570966,0.9173709143442432,-1.2212353103387281,-0.21576996708550142,-0.4104137895793333,-0.04745038044474443,1.3716036032581185,1.411234589986468,-1.9346747217368945,0.5413174263400381,1.4511304030037822,-0.8030401805474207,1.8921089773880846,1.8098847527380837,0.4309737084924699,-1.7115380513810674,0.8253658378777547,-1.1216840762778502,-0.9442990588426072,0.6656969462869469,-0.4974611485006249,-0.8111146926271406,-0.914420695541467,0.6903530837757709,-1.4767271845156373,0.42458596982382324,0.8771787323834729,0.4773757112711787,0.35160822065980535,1.5666428682455906,0.04302834256020275,0.7372734427429212,-1.115727460972187,-0.5419119840997385,0.29955904514034726,0.7363474180201327,-0.6249263800672242,-0.20199894128265505,-1.7966906737503676,1.8648848915181275,1.7190265107358509,-0.2921865797749122,1.6583397815764136,1.3368203503120601,-2.2014309935940966,-2.10494640546413,-0.9803790258450663,-0.17864966255693313,-0.8611382445739034,-0.41598671861014075,-0.9850655925297764,-0.7575843537379119,-0.9078354314537475,-1.7254693658540892,3.080661934839435,-0.5020740281165311,0.9648154511793594,1.1193038881778774,1.4013296273613751,0.6130095971588949,0.9977765331003723,1.7127932300239743,-1.666159187346078,1.3383076423469704,-1.6990576683716974,-0.8737756388367426,0.13920230791325724,-0.87530631082656,-0.07305902625422533,-0.7746372229754893,0.26551164598041765,-0.07534693501721844,-1.7019323645903293,0.20129483194127504,-0.38971331921775965,-1.1313166767478398,-0.9241848668991774,-1.425683912984158,-0.7578935999782974,-0.18086207119545977,-0.09431752622425575,0.9849788420925293,-0.5799764501043788,-1.2152755323110314,-1.7074872572414461,-1.1797078794255749,-0.7880685684556374,1.1230289285429806,0.023205844595889865,-0.13977514585749176,0.3047196674404106,-0.17489782375553017,-1.4195466358678894,-0.540581858469503,-1.5930684243254192,-1.1194224053196244,0.2011269130268427,0.18959118986792156,-1.6333645747285686,0.7347048132575,-1.399381946368909,1.6205622406818438,-0.8819719246089606,1.2712537972155624,0.6654816046490153,0.5085046875653978,0.34005508241354915,-1.09026793944731,-1.133342508457453,0.6342964765618663,-1.0532589150303635,0.38160638202549324,1.1601881862050452,-0.9703008640878991,-0.9272437243606552,1.295179709251408,0.5786211050319118,0.3012488643672649,0.7897655336158503,0.35392281578780005,-1.743665179050512,0.31471496718621705,-0.7230560033512023,-1.2254555819520803,1.5457078722143585,0.09506333829009112,0.6299236274764205,-1.3786988280861776,-1.1829127363941028,0.9858112272022803,-2.5114649549800774,0.07068483375428956,-1.3961045252376567,-0.8083346558800649,-1.427535726753804,-0.15335505077623093,-0.48437450204380106,-0.8285286935001644,-1.3265654238914968,-0.3539524805736266,-0.957028615838254,-1.0580387578182124,-1.645108953967165,-0.8475064557178266,0.47926994299448117,0.8992532446658261,-1.0546888406516157,0.41691578577839694,-1.0066042051652029,-0.1811232629172703,0.9090307284090874,-0.21711920567666945,-2.165105070715196,-0.33678053923933216,-0.322362617603352,-1.4167860444410265,-1.3614608052134174,-0.7772916851740851,1.2809950084400585,-1.1418480689968509,0.33890066697316584,0.47502899466133824,0.04550782746043066,0.7469517105974757,-0.42645903143528185,0.45410297131304256,1.7906571236606645,-0.32597340559743476,-1.1249917167617542,0.9861286678240556,0.4159987146025285,-0.5415337381924684,-0.09025861108976528,-2.0596823792824033,1.6142422216232772,1.8082207942779618,-0.523304376839307,-1.3106261595272295,-1.556782789568243,0.5663054771904056,1.2046369027418413,-1.670445532051727,-0.6882019391891823,-0.5624842214091554,1.0413726800316174,-2.267623110595349,-0.5381250200736991,1.9956070241871382,-0.976605331297315,0.6551932826718456,-2.344382873622623,0.8401697811736625,-1.6437968326110044,-0.19501945673414633,-1.0713634968631534,-1.3129341718999914,-0.4597814147099411,-0.12088731971650556,-0.8448056977314189,-1.0800197898987272,-1.9056088414547387,1.1500416316950408,-1.0742130027767098,0.16960008565993417,-0.7649002846713024,0.8927160320246689,0.048948748396572594,-0.5974621632009016,-0.7699126034708607,1.1658541809646794,1.2051925992572836,-0.38358892225613667,0.6693465257713894,1.6007249630877842,-1.751724355706735,-1.6429482992368192,-2.2256089288000425,0.09202170321101588,-1.8051489110193444,-2.793118224644143,-0.42731610904159417,0.7711560777675918,-0.8615934980146404,1.661221573550189,1.9995851432419671,0.8835918037331377,1.8617296728317085,0.4550100459076718,-0.6950570803285145,-1.2799821623568544,1.186779289461883,-1.624275781005024,-0.7554590606635916,-0.38398720200767683,1.7826596027660597,-1.5313335639136079,2.1992766483645605,0.3185818165660033,-0.26116150093765206,0.8480065127922406,-0.33381270328209406,-1.9845285536833677,-0.23653225852986598,0.494999870384262,0.7815855088118079,-0.69003790571298,-0.2614903946392205,-0.3011293140713807,1.060208316053257,-1.7762739943186376,1.1361068710495157,-1.2158021923826565,-1.5304251293058784,-1.1500077681461958,-0.2551246856250186,-0.6379704961042815,-0.8403484442445595,0.23198419484654398,0.933742242430726,0.9676345930216801,1.4653872759408584,1.785833240104945,-1.6898745425516575,-0.9346791858465203,0.2944524045559912,0.21237723536783765,2.0808933848763886,0.9461226395873121,-0.7671818508382535,2.094582337641705,-0.08434961092091466,1.7071822857821206,-1.0971339870189292,-0.20300365048784624,-0.012159728920289459,-3.291771031719269,-1.665083990029234,-2.0077776464427104,0.9320756939374416,-0.4320499032472323,-0.029634463415668978,1.089313514070063,2.20274671549628,-0.31678693889535314,-0.029893748590156734,-1.5958121864420758,0.31331299415120145,-0.8779686883100569,0.5484283323533513,0.8326570920935806,-0.6965720594672075,-1.9988654596532263,1.3618014715378104,1.118345131163574,0.06970048677402862,-0.47232898880089824,0.8182073892358022,-0.18049383117847048,-0.30695987301732836,0.4428835683296269,0.5396644364044032,-1.3090903032685992,-2.133463183740787,-0.25851534509063123,-2.1716944278920183,0.43526417669953116,0.753128887761196,-0.6525113796231268,0.6721638809712731,-0.0004533324007575085,0.6489835668263906,2.2386103718240253,0.9411668367092123,1.0054720747403778,0.270477546002354,-1.123799553718287,1.3495773511595168,-1.1377210589774807,-0.6348109340904129,1.0087967369166502,2.1770470594010125,1.6965435503818107,2.3747798496431867,2.915166569250967,1.5452871247614333,-0.41013208713173116,0.19451414445101425,-2.4173510458945993,-0.37692314363311225,-2.235020688142282,-2.505529514726086,-2.6609744688095747,-3.0613197705153308,-0.4587850602313832,0.2821467233212268,-1.7271235152656892,0.35676989545879684,0.3153557124621738,1.6609381724176104,-0.4824824314672752,0.29530102978589184,-0.5437867417555242,-1.2659596330393235,0.033143777196231905,-1.2949206227577437,-1.4289773834078832,1.4578046535587177,1.2973257988064006,-0.8956085543952835,1.774268006457895,0.15879662388985485,0.3774922025985738,0.3201272560303493,-0.7866409651653947,-1.7952098403027532,-0.20913212382764018,-2.1684589947467354,-1.352918485732067,-2.683971468439047,-2.3039555419178894,-2.0965186062918892,2.2202256294361726,1.2507310897993338,2.1524075769087596,1.5153240650952804,0.30353422038507516,-0.5155648726513238,-0.052714753684325766,-0.36362164310418277,-1.7243131927475306,-1.6700927880763556,-0.9472650958061061,0.4712242049129385,1.8408940147734911,0.031800921715076015,0.02360465777698941,1.4808367439824615,2.9818449021230347,-0.93479368735865,1.9660746431282254,1.0664470314072831,1.654553936225488,1.2891510819447478,-1.5342239573353493,-0.46770809296872895,-1.7330826746168475,0.22757852841384843,-0.41634602155873357,0.57895476318334,1.078352027746541,0.7559319370979609,-0.6618208336826408,1.3637387338899705,0.8708231420252867,-0.5935209253362748,0.5664035446489899,1.7632382105227409,-1.0584458352349901,-0.8329701382140974,-1.2521879143827965,-0.04664305521263319,-1.4083886786924278,0.3063589319563284,-0.08958565184250689,1.9350025690183532,0.7768989123800213,-0.05184041844918344,2.6007082902932708,2.4095194823043733,2.201976464815747,0.8956177401551243,2.560846179629021,1.2405861427021452,2.2273896598508736,-0.09643761751879666,-0.46095958751945626,3.9590369595442985,3.366927666043693,1.493123071240233,1.536408717927841,0.15810100266294652,0.5444892818931809,0.05791311766061462,0.940037337776167,-1.712040913624108,-1.353607797693465,-0.6037735585925765,-1.8576770642077323,1.2758996533845774,-0.8021743467735628,-1.7559631750934428,0.32737112843898364,0.8288332232617053,0.9926317097353954,0.9803986711555859,2.461468292271777,2.220717496487223,-0.1744461441186483,2.9229238634482564,2.344301843620829,2.2891182200986955,1.8107337401681278,2.086611616791688,0.9999252202020796,2.4968359519895427,1.589772299331298,1.7435153013517715,1.6349329635853191,1.9898092865533556,0.47242358742791457,2.4453983513137723,-1.7372296726637138,-1.5492694794367527,0.05087710938730888,1.0155211431791766,0.7070598502823979,1.5175593145753616,1.0824521908005729,1.8610533084905412,-0.9802468579520537,-0.7338746348108501,1.0008722852206817,-1.676314237482311,-0.8274643452932693,0.31874920261697653,0.5018711775032907,0.020385785440275875,1.1114663517986703,0.5002896315169735,-0.23430955393094866,0.530043937098111,0.023795252356243007,0.9388333243133403,2.463131339279958,-1.2136501425342847,2.0429671090429373,-1.320877274861035,-0.7631738200966862,-1.1780737173253288,0.41663457351510264,0.6296648163128812,0.015017374450826756,0.04965489000691483,-0.9907203947652082,1.3225655994480245,0.5775783143289015,-1.5386486260402445,1.405570742554718,0.20674457819947678,0.6436323871627048,1.3709930151356713,-1.0171231571410269,-2.119920062836249,0.42837592051461276,0.655401189403762,0.4368453564822325,0.4893386180869898,-1.2453988189144716,1.7533759945663927,0.8321320836302247,2.2432688514076107,1.0119706630870422,-1.4503339158721988,0.598964008259305,1.300897990040689,0.5877299462744714,1.3041178096268664,-0.7445399888702968,-0.12263664664931159,0.3589750808730844,0.21518540407260722,0.9082961326095473,-1.9571541711687321,0.5155414951614201,-0.3792526278135168,-0.8989142291631105,-0.4371583178839458,-0.08338594395894197,0.7263410807337268,-0.4132526335632055,0.19924019461870834,-0.3778219811094024,-0.7995849056877489,-0.9495354755992087,-1.8758286378215627,-0.5119250672415208,0.28675572503482355,-1.6915080496534256,-1.1797158630375748,0.2539998012112267,0.8090894776793554,0.5038309484850954,-2.5170687966265417,0.45900180790794454,-1.967327634536617,1.954116837152468,-1.029140457725835,-1.6140780897918094,-0.09964516706836482,-0.19811447044797242,0.29506854747702516,1.413701168800503,0.38204972747670424,0.2671930773802049,0.6469062877360109,-2.1423299846764228,-1.074705312615883,0.8326837631313859,0.055713661058595494,-2.3698276965844163,0.06719063960741703,-0.12981983028295904,-0.10096918222942658,0.2771427085051212,-0.6601953850757754,0.8043546333408462,1.288675104564547,0.21547655428757095,-1.0121086846924687,-1.0188643418823624,-0.05595956304093383,-1.3264701153987424,-1.31851180396924,-1.5880324798180965,0.9606849512768649,-1.256243836366479,-1.169421038986962,1.2292646390950885,0.9523707767348126,-0.18504141556650033,0.625264667184693,-0.2269910803909257,0.23040827083024779,-1.4699133998922154,1.6465669050262572,0.5508234842993671,0.347273215326585,2.0192810310231932,1.9681762752249627,-0.45402916860928727,1.3587310753252917,-0.596057207786376,0.25757849761770457,1.115734061497598,-0.987592142460065,2.3369612081120525,2.5387212149626546,1.282153063405183,1.3355053154533139,0.3176061250086371,1.6985683836526533,0.8401795698373697,0.34195977184422677,0.5746274758026403,0.5414719248158166,0.6549781233732848,-0.7211559515798376,-1.45173175047187,-0.4443696963862839,1.6972121893099406,-1.3817048427864322,1.66475175055697,-0.989963567165812,-0.7861876846465388,-1.5543369609900732,0.10427056056427594,1.0589577541536326,-1.3481418765505329,-1.292566452394478,-0.6949215760128397,0.09559753735625168,1.7453237507997366,2.0412909008411013,1.0549687829130028,1.164294789920664,-0.5755827146645139,0.3990947371449113,-0.842465242478857,-0.7184602117863961,-1.5158964044695467,0.07876498088589272,-0.6681922801204545,-0.3869795757804727,-0.16486154597722003,-0.8912772824012958,-0.6161877542294834,1.4117683251340534,1.4643169749959524,-0.7821362533823233,1.1428095335917439,0.6313844820361151,-0.4512926446932847,-0.08874245490029667,-1.2009989906508747,0.5551148461103962,0.6859800305188546,-0.4276404587615666,-1.5591318555717517,-1.0069802101193137,0.29352031559488645,-1.390915617737497,0.6807537342472592,-0.6696081891882267,-1.479525070769762,-0.6670254020927815,1.7792917818570277,-1.5084085677360943,1.8622439160180257,-1.3237679326464478,-1.3809704863518144,-0.27177792352879315,0.3213681533557651,1.9123463638380924,0.28270244020191626,-0.07582565523848217,1.7543230530920768,-0.3492813500679946,-0.31668621255126633,-0.8575595716910407,-0.5694917459956239,0.490769583360479,-1.803775149914989,1.7682816887965234,-0.26444879571249197,1.0667637992026,1.7048089697257445,-1.3232745050978034,-1.7173691689026152,-0.13666479317117247,-0.9130384677581994,0.7902717691325107,-1.8574457286489425,-1.2823800989824223,1.7152278613305143,-0.758978387824529,1.8529002495017552,0.39538866501561554,-1.7638948557156606,1.5130832018641414,1.4159575502088044],[1.713208123899455,0.2054356227162959,-1.917874623546071,1.1940409020698723,-1.6868920975598103,1.7044988674183914,1.9042973536927938,1.5340561696462984,-1.5412797374640448,1.000828983694264,0.8096754225548315,0.8537544114514493,-0.3728810320513925,-1.700037525178917,-0.5588253941028439,-1.60105834373704,0.9151325209955941,-1.5664307015973202,1.284707283767914,0.49586169092378274,-0.6354150272532992,1.1938533866856158,1.0185891875123936,1.47692099933424,-1.5109987240390135,1.1855483244759544,-1.8239122034381756,-0.6663863249373545,-1.3798401473580535,-0.39293619207988595,-0.5787295780853512,-1.3737001042361445,0.6036295076096616,-1.1435282011109276,0.4419984751962613,0.4923564567692256,-0.8023293791596606,0.8025183946007685,-1.6313721262117307,-0.28306202256718166,-0.23285240910926205,1.7313817735487904,1.3056005798657293,-1.3154419838637672,-0.3131532769906068,1.5673584822070963,0.6887279373688442,1.121458754767506,0.020516828199948222,1.8604813216854204,-1.8252793858225078,-1.9820910968060503,-1.2918996077145177,1.8143948796566427,-0.3048874341013166,-0.4917006625035185,0.7341526188474097,0.077773232958668,0.965373323204008,0.21559727174510837,-0.008879018764668732,-1.5634417874755677,-1.8234637386691377,-0.7564473382694823,-1.3366850005499662,-0.5621009841442733,1.5470344600834744,1.355324937884949,2.1489035886886274,-0.13122097738997232,1.9425830142626068,0.5141033569709426,0.2158136278584625,-0.35055684768951845,-1.8533371129167324,1.150173717437297,1.160254247334887,-1.2396576097654917,1.0457063772422495,1.8863644862191766,-1.3032993607134293,-1.3016371337338462,1.5471901356353603,0.22411597126748894,-1.567776935207828,0.7652807925221294,-0.9768958468983177,-1.6789955908357121,-0.2325221811655545,-1.6230989753369198,-1.1379420717748279,-0.6481469568495342,-1.8062414271262426,1.2788234673162377,0.08315085108201697,-0.18336733448762782,2.203479587609389,1.3140904459888252,2.1198394077529468,1.508896679270081,0.34808172337086635,1.351613354199327,-1.6894487807973704,1.6709595749054167,-1.0091033421080942,-0.7682178375829636,-0.5373923922680565,-0.5843148114011069,0.872075809420018,-0.9172951194450182,0.7883001487629616,1.8369517346462674,-0.9162764530509975,-1.3752023845222061,0.11624856016230399,-1.825532567671947,1.8380204951272785,-0.9577811185603733,1.974193106234079,0.635359393486917,-0.48413929266248323,2.383794592648082,1.2907142833960832,0.5615120228571341,-0.6565376015393922,1.0185017368562763,-0.9394663457901634,-1.2920318970752924,0.9347356757569457,0.4862126607886338,-1.089586478944342,-0.2979004496306343,-0.266999572711437,-0.6326433865149108,-1.2113919042125336,-1.3906088751165842,-1.0131804375404194,-1.985161250910478,1.0458513641519693,0.6566657540774806,0.5818065258864751,-1.006598358222833,0.6313140432713719,-0.8099953094641908,-0.062333214214744526,2.385337632376645,0.6695020802412746,0.1963411788357767,-0.9752839357092717,1.6339213122510112,0.8797735713297595,-0.05797836184980915,1.0951125615594517,1.421853652621131,1.0642594626566015,1.1490040323222632,-1.4868319442199964,0.5808867870869436,-1.1390760700882263,-1.5243426923403598,0.06270530145011383,-0.5671711943635439,-1.9848991087215428,-2.795428408989039,-1.6899585281582479,-1.2870322195951966,1.6852316425485447,-1.9866450593392135,1.2775126584086793,-0.9100825397044717,-1.5771883332749743,0.7332437018668069,1.377224957560294,0.16499880846215106,1.4223328303580483,1.6042578678900217,-1.2018994136348917,-1.3975849185859095,1.753036381407382,0.32132038613474695,-0.8580788651928134,1.1900157185054274,0.8653604396931309,0.44992254448395674,-2.0023911562537604,-0.15605618069705057,-1.7764226241943575,1.001695156569664,2.430891116338779,1.4241048638736047,1.9241581470940987,1.5265887503524158,-1.2152790626741445,0.8489692948411155,-0.6400213114874285,-0.7913528372733989,-0.07605679834997046,1.2675612381661534,-1.661799074073178,0.678833051485813,0.9634801630341163,0.6250239504542615,-0.3600594860477323,-0.4460730084773971,-1.242516248693589,0.4693520371256713,-0.39675557313000276,-1.9035207252536666,-0.5055370317437439,0.0772807074325036,0.16441116596632843,-0.33923107754862364,1.5046049126508778,1.2767796126921298,1.9058832252753828,1.7144076201636906,1.5048424431769856,2.6077663778776126,-0.3586063714394979,-1.2763811407939853,-1.4861315482215804,-0.5590634064569476,1.2242728855549114,-1.6542936081874606,1.3694926211563094,1.0820168747743748,0.5895537791529277,1.087761278047297,1.55703653626933,0.09070995330777276,0.5992957643766671,0.4862765681819834,-1.1093332961574927,-1.423099159629024,-1.5311282389610676,-1.6732620563432576,-2.595124073414525,1.161202532159956,0.8353950686045315,3.1130407941647396,2.183865034828484,2.804656334975737,0.6845056423137316,-0.0023871373995954146,1.8681530399417015,-0.8326122279728084,1.0767312011467107,-0.5315548768140512,0.7090123578370475,-2.787617075872526,1.0575451587785794,1.6500043755267662,-1.108996299102588,0.7419614917264332,-0.7989013840068513,0.7947157160690205,1.6102592955257753,-0.3408139255172355,-0.3363326706986685,-1.2360850228857831,0.4536090874607666,-2.362203250010265,-0.028248338287494262,-3.0786815375760415,-1.9609472655546116,0.32336066448424966,1.8221056039145782,1.7998789508100346,1.4465853109141702,1.2271321970381728,0.7924812954071688,1.7111449677338368,1.8902508267229259,-0.942336473643715,-0.27402891126967627,0.9811592966569347,-2.9427653731153782,-1.5932793828434004,0.39811918785035955,1.764278523970069,0.9735328030520346,-0.8178501198736801,-0.9471299006256589,-1.1797783641880863,0.09611937774952069,-0.04831403107378393,-0.5424552776162901,-0.19311241019379058,-2.2759837942149064,0.15796839971462454,0.9486941899500145,-0.9919531169701447,-2.072406975304005,-1.1344928627814275,-1.9253882566045613,-0.1829473237216511,-1.8495095803993564,0.5753894900540061,-2.3731128913583404,0.9912616785091842,1.3826125780877216,1.3309668781971216,-1.209397736409413,-0.8427688195170451,-1.531884966947201,-1.1586895595358189,-1.4641061353761697,-1.2371787123290297,1.525024542364657,0.2114795320876766,-0.6058360931456641,0.3655918634500158,-0.2738502219944872,0.4254381033758011,0.6813871629040037,-1.4633055908878692,-1.1559005533115327,-0.6807520987971818,0.4509157354452238,-1.0648897068103043,-2.0242668842633433,-3.3494283907150937,-1.6906503730375297,-1.8868375372485422,-0.7316750039000705,-1.2191529795173914,-1.3373331591390651,1.2870266012624962,-1.8990468045594193,1.105588157816906,1.0399665095476034,0.4983306542114902,-0.19368303966296374,-2.3140179919589876,0.7341143457495948,-0.10084962563324168,-0.23681936447746832,1.908662622725261,1.638800045065689,-0.7118675858246024,-0.9092590923915622,-0.3179051167532412,-0.9201453617804437,1.1708938177193735,1.673326347988152,0.6892158104922353,-0.1350854105859488,-1.0082454323736196,-0.48760196680839235,-1.0631954156288914,-0.5853988616745183,-2.004871055042827,-0.2843728141237368,-0.5752460401756598,0.13362259156072107,1.1820505316797068,-1.177186334880899,-0.1172343739407985,1.512849034858487,2.728701377911856,-0.7247172945829413,-0.01058037873371109,0.520234400107251,-1.2436113977926426,0.556126687662843,1.702214034572799,0.9522014983265905,-0.48314511875456406,0.4750386353287307,-0.07817530724190229,1.012464013221072,-0.042467029375304687,0.4916411801794737,-1.168907944879076,0.5395519148799246,0.4112629128991632,-0.3430172153122324,-0.8038589720777259,0.2416115838910859,0.7835892731257601,-0.032137967412970814,1.9793965483863838,-0.6254742449102915,-0.8103942303890943,-0.641274405865336,-1.1961343240765239,0.23801717247908974,0.730226558353152,0.7431477628527219,-0.9657072561910003,-0.22197080627559398,-0.11528500927387911,-0.990370507509355,-0.5411822835587159,-1.687540954402969,-0.020917549947898694,1.7701865001640167,-0.47717453019529943,1.4222217185677135,0.07318579971224348,-0.16742214432092714,1.1522228432579942,-2.089271389211365,-0.23682830371362554,-0.5047845632543905,1.828372960005387,-0.03632373132490964,-0.6871723809658256,1.5325932445657195,0.7255772517867725,2.306836066757269,0.4445577391368252,1.9540250809220712,-0.774555865347762,0.7946443343191217,2.5056994791066614,-0.9222648412908937,-0.10476729148258146,0.555237488140998,1.9324728284173451,1.0085192363884181,0.23598370354183829,0.29592580078433545,1.866093668638869,-1.3282606220708526,1.5987058894943376,1.3158604964939071,0.5948176494173287,1.561828818450401,-0.8397003688229223,1.1919547484275148,1.7639489403981918,-0.677360345495745,1.3011921717767572,2.0408415515854834,1.6305351367182706,1.362387607659869,0.9775884475244069,0.49012073203939166,-1.4084149014192657,0.8873972049271082,-0.0038789868286341583,-0.2935273868954478,-0.4286740335719851,-0.4839665007806728,-1.6269825178915975,-1.0669119507078237,0.1385437084610057,0.6163790564186565,0.8306745132724529,-1.0539026222762558,1.4467946202183761,1.4946625290502054,1.7128072232824665,1.168507439596795,2.1163353825647335,2.148632481829079,1.5438559340102693,0.7409740540862173,2.1073080473438233,-0.18811853036903242,-1.0881554322641895,1.5079098391024672,0.8101325691376119,0.559848093969543,0.25405446210896876,1.139434613325725,0.8639247518582781,0.3638625032871573,-0.2012987848989196,0.506963277085748,-1.5768231887924604,-1.0474268553011632,-2.395600262869218,-1.7794291336621375,1.6500157949784615,-1.0408931962595975,0.09585926462066303,0.26032458629150196,2.0959507682184118,1.1027792739814242,-1.1907857668348902,-0.901362858949226,0.18191619973968048,-0.5553927488730431,-0.33442706718232,2.7006526439499927,2.422242436123721,-0.7068685543824336,0.6836795888006467,-0.2068976949551933,0.8115888404440772,-1.376022801657508,-0.20578474068546795,0.8554310807887558,-0.00907307612267484,-1.608975321169971,-0.7009735658791917,0.8920945755451933,1.3811345688849619,-1.8129780419357815,0.1412689393153564,-1.8617120897878914,1.0361992594300289,-1.0017896615419615,-1.9783305955318518,1.2786001377552045,1.991977992517709,-1.459023173606727,-1.2241492079451228,0.7696156403629232,-1.2690678976182814,-0.27979827856742717,-0.010884200000026488,-0.7062626516696706,-1.0756918359977334,0.8221079489263594,-1.8801424698370153,1.1594331085001865,0.16247133906018366,0.5270346276040462,0.8810349138753781,1.2465911833876042,1.4193234322815869,0.16597415766851312,0.6819013072403061,0.2989199877975742,-2.0312150971796576,-0.8557570951410023,0.09638047269887856,0.29646212047518394,-1.7450665282685087,-0.9432936792507114,0.1858249568304345,-0.902604522411139,1.6456248530204913,-0.24205098636674158,1.4218893551830396,-0.31372386887054815,-0.9774814446441115,0.020558561328786,-1.9089756969908587,0.16741995619549382,0.2723205998055848,0.9583971991031714,0.05601182394379481,-1.5805806960475013,-2.0571356444665714,1.141013798155422,-0.1055098339384644,-0.4479344417111452,-1.0668073499787458,-0.13464580286373115,2.250480981803098,-1.7488867449692602,1.1877770049975394,-2.449318544149173,1.478313642589071,0.46443296353221686,0.21137727169965354,-0.9061611483178229,0.9325381382569733,1.8684474986894601,1.3396652798750905,-0.12069288153716819,0.049155648933023065,-1.7228770171222234,-1.32307578050985,-0.34209296330238803,0.10047416752438865,-0.3543382371753082,0.7672326154315857,-1.15494728528481,1.2636576219455664,0.4986688103670071,-1.0178699401319833,1.6459280691296194,-1.02628801044672,2.9182741642407923,-0.49649764961584136,1.20427604908596,-0.6627556295623361,1.0547789548437445,0.33934977746685246,0.9806018354851478,-1.0982519726408446,0.41497814047579,0.43660717976578406,0.7141199122230005,1.3116726646037824,0.5068788700346394,1.0346616872129069,1.653115186726664,-1.8946681927451723,1.4699959976979156,1.3017572857693063,1.470645207405474,1.224544683060223,0.1419664970160958,-0.12035571195042617,-0.812943368123466,0.49559713006881806,1.8680099154665981,1.9474471121359576,-0.49250854025803903,1.094836497915626,0.6369917524126191,-0.4945029108902836,0.6299990873084567,-1.0861102119766985,1.6366176780527646,0.03736180186359161,0.7282367196387828,-1.245435127322451,1.7958371611738086,-0.6887032623437517,-0.8602632302286323,-1.729367794305018,1.455560987112413,1.3329292711457397,0.22732757213031388,0.26067305003580005,-0.7731294966830997,-0.6017136821754931,-0.3817887455758004,-0.22734088957043108,2.228486139340417,-1.031862095126113,1.4817080527003375,1.2770178325175634,-0.9729187903826984,0.8974213808078877,2.109643691103555,-1.09122469666535,-0.37554669584706374,1.307357974204251,1.6469540656080301,-1.318437739315687,-1.3464592680148677,-1.1822000704054687,-0.640491504265247,-1.562229113940735,1.760994129475457,-1.6588321784631432,1.3049799035620202,-1.3200612406579602,1.6596687320659866,-0.44557357479089277,1.6735820988537486,1.401318307695389,-1.5015046887296546,1.40032128698286,-0.4435429425147119,-0.3480058512620438,-0.113147711816651,-0.8299131828005892,1.137367361985067,-0.1794855604621218,0.14357041582366586,1.8485655995670716,0.2741835849171569,-0.06064757161482196,0.3899451735295877,0.6640926146344206,-1.6172690738797064,1.2486078425575993,1.1448772263247253,0.09929039004758124,0.5164507380396713,1.17530148240526,0.001048530259666652,-1.5885785374852492,-0.7472277684818254,-0.521923979968272,-0.7877668950905372,-1.7423416806130638,-0.28105923527988624,1.6210417873289036,0.038238577634014455,-0.385013761304879,-0.27156289550439006,0.6836422692676378,0.4265739091919679,-0.1661571029688276,0.9810388242341186,0.4007276854908947,0.5919754843815135,2.325555399221869,1.4510649398131823,-0.12072512109202023,-1.9915580395520263,-0.5573685318039677,-0.8983177666455833,-0.7475429184387261,1.870407995175468,-1.289954052449828,1.346986192108857,-1.1896270778649602,-1.4515605526325432,0.8943742140542135,0.31142188936251713,0.19556124199326774,-1.1097243077486612,1.9830029731490597,0.17066681700251723,0.7746455418171329,-0.9747311224626368,2.1051584998829145,1.120786267056501,0.04686702045227795,2.0530158872589834,0.04163226565570156,-1.5946946464476401,1.5419377964759762,0.8923217210287911,-0.48531651938465115,-0.08349784323499279,-0.3721575322698335,-0.16003550350569742,1.33471670455089,-1.9801917558281803,0.7306349258601547,0.3222128563694037,-0.2564444592226673,1.6639225765510615,-0.06415452899503844,-1.8739126640133557,1.1825650787951165,0.9641325437317878,1.555377761950055,0.8419913870463667,0.7509483781208943,-0.5931807916206105,-1.5714567223458575,-1.193482376409021,2.01267608803325,-0.049594322991931734,1.0701797599537684,-0.7952191672818106,0.11223456606863495,1.523572902637934,-0.7126163602360802,-2.737546115900227,-2.0021951049286955,-0.13541148339323883,-1.8357302997384464,-0.6324108709700567,-0.7245153024658946,-1.1430654415418677,1.5539365663605837,1.7672318113050065,0.5683552758020741,-1.0148555579771257,0.2971220174801541,-1.497470117864398,1.5421153635189224,1.163473145900265,1.5955409088137307,-0.8466637623834208,0.15958554667227265,1.8637033974980257,-0.34169359971518626,-1.58851524603345,-0.2141347706353072,0.18815099236393726,1.0963501026074416,0.036052068785405254,1.3144296504831816,1.2779511751126718,-1.8821844441824709,-1.7278506769425683,0.2564215257663422,1.7418954575093297,0.8091583258256002,-0.1006878130206907,-0.15650266886764522,1.2515203703949713,-0.7103247925291878,-1.9007019771238252,0.6650205500768581,-1.63930048420886,-0.8701882570513488,1.145710270910742,-1.7208811924733327],[1.327228569421786,1.0754551924211908,1.4581150067159463,-1.0816149054781716,0.6049333831786781,-1.2335387813212284,-1.504777654921921,-1.5491789832713767,0.29876116003378783,0.5967021769956435,-1.6420606900439472,-1.0649082455713765,1.746536873031698,1.5911720762722958,0.7903739726726438,-0.36025358003750846,0.17262473969442738,1.7475452649702294,1.2341917346297384,-1.2417769102785945,0.04284214373793471,1.1676943162496816,0.74514384514009,-1.305657249906261,0.8756242912061438,-0.452323929468915,0.18022552237086487,-0.7285000199482754,0.8358905009792581,-0.7197147795288608,0.5559369457987886,-1.470903002245639,0.6905284793546782,0.9423474519256022,-1.4110774004041853,-1.674631237832153,1.9336136442987828,2.053016793737953,-0.12762730624802238,0.1534113532086652,0.1653801742681409,-1.4020403721801167,-0.8426787496527154,-1.499352190861319,1.0697636050028363,1.5317229434402118,-0.2272560614158686,-0.676297662029251,-1.5447817222099502,-0.1301971572196871,-0.4211452621509732,-1.9418752840479738,-1.1003201614822187,-0.22043691059202608,-0.5140556853033296,-1.2055334520594014,1.1736802967591897,1.8921413106378147,1.347289640506357,1.4942927068022192,0.30918766087206234,1.7803084926357955,1.6975579057120505,0.958596045791938,-0.5896066279529698,1.4909197857124912,1.0500017081676758,0.1911648693232501,0.2551324449893686,-0.3351660917521118,-0.8084271953776105,1.505127661543785,0.2952793148389627,1.8928551889541865,-0.3447282021220135,1.4392770664375152,0.16056895207138305,0.28128760770035516,1.3209460231073813,-0.01403686827235808,-0.4004981119262369,-1.252516834010867,-1.4037412018550368,-0.46817378579432933,1.7047637276887464,-1.0756951790235307,1.0829171997252072,-0.1797055072192826,-0.8419357905293972,2.001245484948943,2.181871977198974,1.5499800957915446,0.4338708220327588,1.9095845187897564,3.6828521772903224,0.9447880256602151,3.1559124814258706,3.516269598316969,2.618722131370018,-0.11241237482021865,3.0240328718473286,0.10941708754410977,0.9640746340644752,0.8621850518600395,1.3196144859332333,-0.6595257504026913,-0.0839850364802396,1.685779598099208,-0.9643796034938725,0.09465450193045598,0.9638105492264606,0.888430363194118,-0.7490600046745692,1.4523730199177538,-1.9806576225050128,1.7665024936111717,0.6402302706928051,-0.960783211518859,0.39583936989424856,2.4616076769166524,0.8475588193285095,0.9658538416195399,0.84462127899841,-0.08196433875353472,2.8057869036632046,2.489991574351248,2.257479830065656,2.6259119504248627,2.098062186162309,1.9669006481603146,1.5688299959070613,1.8895404436316492,-1.0017840797058095,0.5506115379766837,2.149686808735372,0.8793377803326773,-0.7313935813393707,1.8780340906248842,0.0504702281837538,1.5544040020599843,-1.1845318461178138,1.8830085669101466,-1.8591341417234724,-0.7191332897600892,0.2871533680882811,1.0669164995619222,-0.13870062084493456,-0.4252761507391152,0.3969816628802558,1.9734808560587314,0.2544804509675699,1.3795035255279817,0.8885274786778877,0.925971930723207,0.9121301992429811,1.7200404963548424,0.1695761960526968,2.8047066848758093,2.2489060001330046,0.8809599350209876,0.37664889055761763,1.8562019931159413,-1.3801431254152825,-0.7200101439390015,-1.9838363036471207,0.9942365546203995,0.4469452967350893,-1.9651476480499535,-0.3484921674034007,-0.7586883855412881,1.0584601024863258,0.6955654797810077,1.650962953951999,0.2538087589204634,-1.3142565010064928,1.7007623157017333,0.418718892084922,-0.7205807947157277,1.788203946476092,-0.08938884685548024,-0.6354465411256084,-0.3756133414182771,1.3953735887198293,-0.045265022525310186,-0.3924810660264375,-0.26677079734254616,1.4189489604951844,1.6619801527756466,0.9906217115570415,-1.3531265043256722,-0.10951012023680833,-1.8525128985578505,-0.18320444485733736,1.464326164432704,2.0282485556556034,0.8589818876352738,-1.302470468517255,1.3383455218697395,-1.9232011232695543,-1.4403970178053689,-1.4626118045654923,-1.1787447112354177,1.1931256294798893,-0.16900391775343437,0.004491618722846728,-1.5570120871229576,-1.130699177947535,-1.1780428440198567,0.128741780208272,-0.24463402131661002,-1.456307195251491,-2.0107598443705106,0.8556432418274277,-2.3814901763294394,-0.7133359830090154,0.04206044431155181,-0.8263593664331199,-1.202000145999712,0.6154201054511843,-0.7315377249482418,0.8556479322513428,1.1137994406083045,0.17076414186391012,-0.5931830013759805,1.421553917219933,1.8022360216047362,1.7837913553005749,1.4769926756028136,1.4822921092842594,-1.3514486784688386,0.776711609123258,1.236626666821268,1.3668682688639266,0.16318691262055274,1.2676132303214906,-1.447696763343166,-0.7321553327321547,-1.039620422668906,0.6270139761122842,-1.1709555035795978,-0.3786681646543086,-0.7594952308304933,0.10127835884930615,-0.6467460740361752,-0.5285474942103133,0.09324536458470847,-1.572451542357234,-2.3540677544882302,-1.6259234637798714,1.905712767636609,0.40576173024066514,0.4995191836835591,1.3717310750411675,-1.8001473915392778,-1.0743869480737354,-0.7635181102649065,-1.7208132044023707,-0.1532647649654725,0.5270663241937288,-1.2425281699427462,-1.1948967110809898,0.09151997862633396,0.45985940044488177,0.7957045032754954,0.23696339429846977,-1.700451186018307,-0.2469778797523131,-0.8542883998288182,-2.4686251562171675,-1.6138014424167977,-0.7588236713122511,-0.6926766445050162,-1.7456009994302113,0.24312108898190127,-1.9618574448160713,-1.4242756673624946,-2.001500345125945,1.9784293723285178,0.501808622285932,0.2758068146704225,-1.9017591237643026,0.30679628323995384,-1.4281491970274092,0.7326434120214199,-0.7300472532275263,-1.3349910593905592,0.8890887488963699,-0.298310274940757,2.7249765372649835,0.038054145675499265,-0.6256713488890855,-0.08112016950464286,0.12073405537697642,0.8145680154765502,0.5872306498461186,-0.05486294897867966,-0.5178873156030968,-1.2242323456102144,-1.8179332144687688,0.7245695268590985,-1.5962188501922325,-0.016700305260933895,-2.422861864796436,0.23449263156045988,-0.3815410272205225,1.6258785108314253,-1.9499966776891777,1.4251772659079853,-1.8331561171070159,0.9873163640727579,0.6286304106330123,-0.5144427691899162,-2.13179918189316,-0.8017545797974243,2.2287666831160817,1.712340452839985,-2.5291437854587855,-1.4736611141120632,-1.9984764205750822,-0.1878211438074026,-2.4878043734331605,1.2129829878300022,0.07686056262613111,-1.7126291622860002,-1.2180958628910212,-0.7338074400121333,-0.04772424206185057,-0.317262778125386,1.087648073068936,-0.7728450104143001,-0.5994880954878133,-1.255257822235604,-0.3839166900189371,-0.5094454791921055,-1.8748304453762872,-0.6058093959690436,1.3892796608232203,-1.2908301715523736,0.6403969681902957,0.38212494219798193,1.5912322027382508,-0.1580144574803713,0.7134243884575678,-1.4645361324500166,-2.900128783044446,-0.8409957342912651,0.9649681144301271,-2.313936876522849,-1.4289235362589785,-0.37440760640118925,1.3444757890994359,0.038624104270536766,-0.28746274593148324,1.3191693047742434,-1.1579009377354488,1.5249840071099299,2.3261168401683663,1.740741529403267,-0.6440940800682551,2.2219086176713088,2.8667444446092794,-0.5931117267043396,1.5628960288434877,0.02267973233937981,1.6278536828999224,-1.2734156446682947,1.7112165381540307,0.56843217240601,-1.0796889428396514,0.45330902153900937,-1.3649704591760607,-2.8034997500582284,-1.4196730372998518,-1.4478688308828471,0.08786480464718951,-1.018825924902244,-0.14015090223685056,1.6405276339449106,-0.6237528468490989,